432 100
</s> 0.108 0.064165 -0.11394 -0.11409 -0.025339 -0.048518 -0.046836 -0.039347 0.059134 0.019796 0.065298 0.013154 -0.043331 0.12319 -0.094661 0.0073159 -0.12346 0.02017 -0.023545 -0.20386 -0.0025163 0.17238 0.060628 0.078951 -0.29819 -0.1259 0.21376 0.14999 -0.062714 0.15168 -0.17352 0.023451 -0.00322 -0.039938 0.03026 0.0049672 0.13976 -0.11839 -0.058043 0.10617 0.38175 0.17451 0.10175 0.032189 -0.0064027 -0.16669 -0.19385 -0.03695 -0.21918 0.04476 -0.0097049 0.32003 -0.22519 -0.15029 -0.042629 -0.085622 -0.019833 -0.013344 0.098945 0.12778 -0.065616 0.14683 0.24318 0.079665 -0.1642 0.21071 0.06323 -0.017465 -0.03418 -0.029696 0.027224 -0.012314 0.16348 0.19259 -0.15375 0.062813 0.17297 0.20457 0.13211 0.0078682 -0.0017905 0.11755 -0.075726 -0.17486 0.16484 0.10436 0.078709 -0.099944 -0.21111 0.051673 0.19243 -0.16648 0.40429 0.060819 -0.21613 -0.25804 0.011725 -0.22008 -0.23062 0.090774 
@EPFL 0.11426 0.05621 -0.1108 -0.11196 -0.032265 -0.046949 -0.051831 -0.042311 0.049469 0.01004 0.067321 0.0083099 -0.051005 0.115 -0.09244 0.010313 -0.13345 0.011831 -0.022099 -0.19996 -0.00046419 0.16753 0.063055 0.085871 -0.30976 -0.1197 0.21739 0.15855 -0.057842 0.14206 -0.17118 0.030006 0.0097942 -0.036847 0.042694 0.0061113 0.13767 -0.10684 -0.057197 0.11699 0.38018 0.17481 0.10182 0.033339 -0.0048869 -0.17621 -0.19113 -0.035094 -0.22339 0.041826 -0.006822 0.3167 -0.22292 -0.1583 -0.037975 -0.08506 -0.023565 -0.011258 0.10018 0.12823 -0.061267 0.15106 0.24312 0.077006 -0.1595 0.21314 0.070468 -0.027387 -0.042426 -0.034806 0.042434 -0.01001 0.17043 0.19532 -0.16151 0.06675 0.17029 0.20116 0.13645 0.012512 0.011017 0.11347 -0.083808 -0.17449 0.17266 0.11212 0.07813 -0.10701 -0.2161 0.054388 0.18861 -0.16984 0.40876 0.074641 -0.22397 -0.25758 0.0039633 -0.23399 -0.22901 0.097178 
the 0.13413 0.058196 -0.10854 -0.13492 -0.023487 -0.055562 -0.053977 -0.044672 0.047026 0.012238 0.059425 0.0085805 -0.06262 0.12332 -0.091283 0.0063355 -0.12072 0.017285 -0.02293 -0.18465 -0.00012888 0.16079 0.047861 0.085583 -0.3252 -0.13279 0.20428 0.166 -0.060277 0.15232 -0.16335 0.028335 0.0076826 -0.038185 0.047757 0.0066767 0.13476 -0.12095 -0.051417 0.11585 0.3755 0.17672 0.11229 0.026959 0.0041922 -0.16733 -0.19595 -0.04203 -0.21301 0.054027 0.015955 0.32788 -0.2166 -0.16701 -0.039361 -0.082057 -0.0056583 -0.018482 0.088646 0.12318 -0.054807 0.15805 0.24438 0.060213 -0.18382 0.22534 0.051634 -0.019152 -0.050142 -0.047684 0.053243 -0.020091 0.17145 0.21126 -0.15162 0.063354 0.17158 0.1906 0.14392 0.026379 0.014351 0.12877 -0.10588 -0.17927 0.18038 0.11582 0.090503 -0.096675 -0.20544 0.067393 0.17904 -0.18281 0.40936 0.090716 -0.2208 -0.26539 0.0034815 -0.23185 -0.22638 0.095648 
to 0.13507 0.063887 -0.11878 -0.12568 -0.031217 -0.056386 -0.049478 -0.043816 0.045505 0.012474 0.062053 0.01605 -0.064653 0.12434 -0.09751 0.0084683 -0.12344 0.023921 -0.03032 -0.20102 0.0030438 0.16867 0.057724 0.096295 -0.33043 -0.13062 0.21923 0.16199 -0.070417 0.14526 -0.17253 0.022752 0.0044014 -0.032506 0.040482 0.012538 0.15022 -0.12639 -0.061392 0.11462 0.37723 0.1705 0.10902 0.024495 0.0048032 -0.18195 -0.19517 -0.038188 -0.22195 0.049162 0.002328 0.32883 -0.22367 -0.17514 -0.043066 -0.083774 -0.024086 -0.025205 0.091239 0.1245 -0.072568 0.15686 0.24905 0.063988 -0.18344 0.22158 0.062784 -0.024307 -0.047558 -0.047715 0.051849 -0.019831 0.17472 0.21246 -0.15421 0.072145 0.17157 0.2101 0.13931 0.020432 0.0038711 0.12235 -0.096584 -0.17308 0.18426 0.10898 0.092257 -0.096295 -0.21192 0.068742 0.18855 -0.18996 0.40705 0.079826 -0.22519 -0.26027 0.0047523 -0.24503 -0.2368 0.097017 
@EPFL_en 0.12283 0.059995 -0.11541 -0.12371 -0.028454 -0.053019 -0.053932 -0.044006 0.050945 0.0079461 0.069304 0.012826 -0.056324 0.127 -0.095797 0.010735 -0.13388 0.014438 -0.026585 -0.20717 0.0015496 0.17649 0.064072 0.090731 -0.32859 -0.13176 0.22745 0.16632 -0.064658 0.15055 -0.17655 0.029698 0.0050986 -0.036823 0.044442 0.0052404 0.14838 -0.11908 -0.061242 0.12144 0.39835 0.18147 0.11053 0.033635 8.7984e-05 -0.18292 -0.20017 -0.034141 -0.23354 0.049164 -0.00086987 0.33885 -0.23048 -0.17045 -0.041546 -0.088485 -0.023159 -0.018112 0.1005 0.13374 -0.063876 0.15953 0.25354 0.074894 -0.17243 0.22677 0.071002 -0.029432 -0.04797 -0.039733 0.044377 -0.016697 0.17777 0.20738 -0.16624 0.073882 0.17663 0.20952 0.14165 0.01772 0.0093391 0.12333 -0.092513 -0.17888 0.18196 0.11323 0.086902 -0.10765 -0.22168 0.060719 0.19512 -0.18442 0.43048 0.083861 -0.23254 -0.27136 0.0037711 -0.24771 -0.24448 0.10046 
of 0.12666 0.057794 -0.10774 -0.12532 -0.025794 -0.050897 -0.060734 -0.03904 0.044341 0.017035 0.066771 0.010346 -0.056851 0.1217 -0.093231 0.0068141 -0.12728 0.014735 -0.029527 -0.19729 -0.0056523 0.16988 0.060665 0.085638 -0.31976 -0.12567 0.21508 0.15795 -0.069403 0.14969 -0.17417 0.027908 0.0024828 -0.03488 0.044835 0.0050444 0.13567 -0.1252 -0.056525 0.12249 0.38146 0.17213 0.11212 0.032451 0.0024504 -0.17565 -0.19705 -0.03862 -0.21767 0.050805 -0.00053568 0.32243 -0.22706 -0.16133 -0.040383 -0.087927 -0.010143 -0.015376 0.091805 0.12434 -0.067574 0.15312 0.24836 0.070042 -0.17079 0.22115 0.062655 -0.026214 -0.050742 -0.039874 0.043089 -0.01133 0.17415 0.20389 -0.15469 0.066562 0.17827 0.19806 0.13371 0.021916 0.018185 0.12643 -0.095819 -0.17093 0.18365 0.11541 0.082173 -0.099544 -0.21762 0.063408 0.18645 -0.18164 0.40919 0.080201 -0.22553 -0.25726 0.0005049 -0.23292 -0.23723 0.09461 
and 0.12362 0.059865 -0.1093 -0.12634 -0.023037 -0.054747 -0.048498 -0.04269 0.042363 0.013059 0.067553 0.013265 -0.058306 0.12076 -0.090933 0.0072667 -0.12363 0.02129 -0.026461 -0.19802 0.0033041 0.17267 0.056378 0.084993 -0.3259 -0.12469 0.20899 0.16485 -0.068032 0.14792 -0.16917 0.025647 0.0028539 -0.034327 0.040389 0.0096682 0.14312 -0.11813 -0.056703 0.11615 0.37904 0.17318 0.10816 0.028248 0.00036364 -0.17439 -0.19277 -0.035064 -0.22124 0.046397 0.0060642 0.3321 -0.21923 -0.16512 -0.036668 -0.086477 -0.014931 -0.023097 0.093022 0.1243 -0.059753 0.15759 0.24212 0.06764 -0.17083 0.2264 0.064667 -0.024202 -0.043266 -0.040106 0.045005 -0.015711 0.1714 0.20627 -0.1524 0.071906 0.17257 0.19853 0.13864 0.014765 0.012354 0.12187 -0.096805 -0.17173 0.17738 0.11089 0.092087 -0.10393 -0.21541 0.06466 0.18957 -0.18485 0.4113 0.085113 -0.22592 -0.26238 0.0016176 -0.2413 -0.23403 0.094187 
in 0.11773 0.064281 -0.1112 -0.1261 -0.018058 -0.056999 -0.052914 -0.041449 0.052799 0.0060078 0.074113 0.012368 -0.058391 0.12418 -0.090305 0.0092674 -0.12324 0.021688 -0.027685 -0.20674 -0.0013008 0.17174 0.054642 0.088636 -0.32581 -0.1386 0.21228 0.16406 -0.066934 0.14054 -0.17651 0.028414 0.0060067 -0.036584 0.038543 0.0033367 0.14436 -0.12728 -0.057127 0.11663 0.3872 0.17269 0.10939 0.036495 0.0036459 -0.17575 -0.18949 -0.038 -0.22852 0.050442 0.0062082 0.33684 -0.22465 -0.16705 -0.042369 -0.088022 -0.015616 -0.017751 0.096263 0.12844 -0.06188 0.15347 0.24435 0.067034 -0.16895 0.22816 0.066931 -0.024634 -0.046633 -0.044032 0.046399 -0.012376 0.1762 0.20564 -0.15313 0.078203 0.16783 0.20235 0.13683 0.024111 0.0076583 0.12207 -0.094046 -0.1713 0.17929 0.11719 0.089309 -0.1003 -0.21481 0.061366 0.19076 -0.1823 0.4172 0.088092 -0.22771 -0.27234 0.00061487 -0.24247 -0.23675 0.090918 
a 0.13461 0.054209 -0.11079 -0.12722 -0.029225 -0.064801 -0.058207 -0.047651 0.042298 0.0037868 0.060477 0.017055 -0.060933 0.13041 -0.098496 -0.0001125 -0.12281 0.020791 -0.01702 -0.20164 -0.007715 0.17303 0.060159 0.087716 -0.32353 -0.13176 0.22172 0.15298 -0.057484 0.15145 -0.17266 0.033184 0.011614 -0.034813 0.032914 0.010334 0.15203 -0.11925 -0.058363 0.12519 0.38816 0.17069 0.11623 0.028705 0.0017695 -0.1812 -0.20099 -0.036883 -0.22545 0.048131 -0.0015256 0.33199 -0.2295 -0.16303 -0.04105 -0.081566 -0.02414 -0.024104 0.099485 0.13237 -0.069795 0.15337 0.25523 0.084503 -0.17982 0.21607 0.081948 -0.030723 -0.055461 -0.047389 0.048484 -0.018478 0.17346 0.20356 -0.15469 0.080062 0.1654 0.20967 0.14532 0.023039 0.010621 0.12335 -0.089797 -0.17984 0.18328 0.11499 0.091844 -0.10413 -0.21646 0.069892 0.19258 -0.18111 0.42557 0.086245 -0.23153 -0.27024 0.0028926 -0.23606 -0.23797 0.099339 
de 0.093521 0.041634 -0.10795 -0.087601 -0.047595 -0.030618 -0.054489 -0.028719 0.059909 0.0042863 0.072259 -0.0025554 -0.038095 0.096186 -0.082345 0.0076749 -0.13587 -0.0058588 -0.010674 -0.19774 -0.0018314 0.15521 0.060242 0.082757 -0.27733 -0.099102 0.22038 0.14605 -0.058143 0.12852 -0.16684 0.032572 0.016797 -0.034748 0.035919 0.0029254 0.12362 -0.089431 -0.061234 0.11573 0.36727 0.16208 0.079351 0.036662 -0.017665 -0.1734 -0.17442 -0.018235 -0.21276 0.038181 -0.029582 0.27813 -0.21624 -0.13442 -0.037225 -0.081413 -0.029025 0.0041166 0.10564 0.13213 -0.04947 0.12102 0.22221 0.076181 -0.13004 0.19231 0.090547 -0.02773 -0.030298 -0.022618 0.023335 0.0022462 0.15026 0.16879 -0.16681 0.062201 0.15323 0.18779 0.13903 -0.0075672 0.015964 0.091339 -0.058568 -0.15918 0.1481 0.10101 0.057137 -0.1174 -0.21005 0.034061 0.17783 -0.14104 0.37994 0.046567 -0.21006 -0.23603 0.0011695 -0.21131 -0.20691 0.085976 
for 0.12367 0.062721 -0.11724 -0.11988 -0.025674 -0.058713 -0.053829 -0.042832 0.050093 0.0073159 0.064307 0.014154 -0.05608 0.12423 -0.10036 0.0075086 -0.12778 0.018393 -0.025468 -0.19612 -0.0018535 0.16944 0.052559 0.091329 -0.31954 -0.13109 0.20926 0.15771 -0.065355 0.15115 -0.17031 0.025468 0.0017177 -0.035544 0.041925 0.0026599 0.13792 -0.12048 -0.056247 0.11462 0.38253 0.17502 0.10694 0.030007 0.0035848 -0.17236 -0.19807 -0.03601 -0.21942 0.050954 0.0036803 0.32741 -0.22111 -0.16334 -0.042867 -0.083645 -0.018678 -0.021403 0.09448 0.12671 -0.056446 0.15339 0.24973 0.073339 -0.1749 0.22817 0.063483 -0.024213 -0.048367 -0.042304 0.044152 -0.016243 0.17515 0.20499 -0.15752 0.072938 0.16804 0.20365 0.13841 0.021697 0.0086092 0.11879 -0.094857 -0.17528 0.18021 0.11488 0.087546 -0.097435 -0.21301 0.062742 0.18236 -0.18297 0.41633 0.078227 -0.22873 -0.26522 0.0074435 -0.2443 -0.23604 0.096428 
at 0.12959 0.062431 -0.1138 -0.12665 -0.025894 -0.052966 -0.048611 -0.043024 0.048322 0.007279 0.063958 0.017303 -0.055317 0.125 -0.092522 0.0043333 -0.12591 0.017755 -0.032526 -0.2044 0.0019838 0.17505 0.055634 0.091613 -0.33154 -0.1305 0.21712 0.16437 -0.067498 0.14715 -0.17375 0.033984 0.0055083 -0.041864 0.037269 0.0076441 0.14328 -0.11703 -0.057459 0.11753 0.38675 0.17195 0.10679 0.029952 0.0027734 -0.17483 -0.1951 -0.037608 -0.22093 0.04756 0.0038262 0.33282 -0.22679 -0.17195 -0.037188 -0.083681 -0.017883 -0.020796 0.096311 0.12697 -0.061627 0.15272 0.25015 0.074963 -0.17456 0.22943 0.069824 -0.021315 -0.050516 -0.044512 0.042716 -0.019294 0.17949 0.21013 -0.16265 0.075817 0.17375 0.20995 0.14364 0.015294 0.011115 0.11947 -0.099112 -0.1733 0.18445 0.11174 0.093295 -0.10037 -0.21537 0.061458 0.19467 -0.18155 0.41549 0.087955 -0.22955 -0.26121 0.0016987 -0.24939 -0.23995 0.10084 
on 0.12608 0.060238 -0.11499 -0.12318 -0.026588 -0.056152 -0.060363 -0.040834 0.053172 0.0095028 0.067262 0.013464 -0.049385 0.12259 -0.091828 0.010168 -0.13475 0.01047 -0.027589 -0.20582 0.0010961 0.17557 0.058802 0.091792 -0.32164 -0.13516 0.22172 0.17254 -0.069338 0.14879 -0.17453 0.030264 0.01147 -0.034039 0.044383 0.0077435 0.1453 -0.11727 -0.057588 0.12543 0.39313 0.17485 0.11065 0.023091 0.0048493 -0.17998 -0.20334 -0.035659 -0.21874 0.052337 0.00062976 0.32783 -0.22725 -0.1682 -0.046602 -0.084094 -0.02331 -0.018668 0.097354 0.12623 -0.057333 0.15715 0.25392 0.069858 -0.17969 0.22946 0.065633 -0.029951 -0.045673 -0.041375 0.046416 -0.015726 0.18196 0.21001 -0.15907 0.073038 0.17575 0.20366 0.13764 0.022567 0.0079813 0.11682 -0.094193 -0.17926 0.1814 0.11453 0.092163 -0.10624 -0.21902 0.058742 0.18823 -0.1871 0.418 0.073862 -0.22557 -0.2689 0.0064676 -0.24575 -0.24291 0.099624 
#epfl 0.11411 0.053796 -0.10755 -0.11052 -0.029872 -0.048979 -0.051902 -0.041183 0.050359 0.0053997 0.072471 0.0093176 -0.0519 0.1146 -0.094274 0.011347 -0.12919 0.013174 -0.022039 -0.19849 -0.001108 0.16589 0.056808 0.087827 -0.2977 -0.11776 0.2152 0.1589 -0.059414 0.14251 -0.16667 0.031254 0.0053999 -0.035156 0.041399 0.0059793 0.13354 -0.10917 -0.060939 0.11106 0.37633 0.16733 0.099172 0.031679 -0.0057869 -0.17213 -0.18872 -0.029544 -0.21299 0.043923 -0.0059425 0.31083 -0.21735 -0.15501 -0.040932 -0.084713 -0.026679 -0.015584 0.093141 0.12944 -0.057856 0.14119 0.23587 0.078633 -0.15782 0.21229 0.073581 -0.027379 -0.043167 -0.035881 0.035 -0.012492 0.16423 0.1921 -0.1571 0.068896 0.16105 0.19558 0.13579 0.012674 0.011444 0.11325 -0.08349 -0.16619 0.16634 0.10727 0.078478 -0.10253 -0.21092 0.055106 0.18531 -0.16772 0.398 0.071579 -0.21739 -0.25332 0.0035635 -0.23215 -0.22197 0.09286 
with 0.12788 0.060917 -0.11101 -0.12516 -0.026319 -0.055716 -0.052342 -0.043551 0.051591 0.013377 0.071305 0.013459 -0.058126 0.12839 -0.094369 0.0060465 -0.13201 0.015725 -0.026451 -0.20595 -0.00092159 0.17408 0.06029 0.089485 -0.32994 -0.13037 0.22075 0.16118 -0.061995 0.15019 -0.17183 0.029666 0.0042007 -0.040794 0.044306 0.0079709 0.1413 -0.11985 -0.060384 0.12052 0.39239 0.17895 0.10791 0.030565 -0.0011524 -0.1786 -0.19909 -0.033023 -0.2221 0.050752 0.001046 0.33877 -0.22401 -0.17217 -0.03921 -0.089322 -0.022516 -0.019101 0.096135 0.13058 -0.066182 0.15781 0.24685 0.075961 -0.17376 0.2286 0.072876 -0.025362 -0.047727 -0.044067 0.048326 -0.015044 0.17553 0.20862 -0.16277 0.075471 0.17934 0.20543 0.1438 0.01861 0.014468 0.12506 -0.095235 -0.17698 0.17963 0.11403 0.086721 -0.10668 -0.21868 0.061925 0.19299 -0.18456 0.42397 0.081404 -0.23531 -0.26931 0.0048748 -0.24496 -0.24249 0.10254 
via 0.11505 0.056647 -0.11246 -0.11274 -0.031295 -0.04561 -0.052277 -0.041798 0.051101 0.0062795 0.065528 0.012351 -0.052857 0.11637 -0.088452 0.013249 -0.12547 0.016094 -0.024819 -0.20144 -3.1972e-05 0.15958 0.057253 0.090494 -0.29574 -0.11811 0.21099 0.15201 -0.064067 0.13816 -0.16398 0.026516 0.0077489 -0.034293 0.035608 0.0054773 0.13463 -0.11073 -0.057487 0.11224 0.36433 0.16414 0.093667 0.028985 -0.0031262 -0.16813 -0.1859 -0.031658 -0.20991 0.045182 -0.0088801 0.31094 -0.22032 -0.1568 -0.038947 -0.078128 -0.020176 -0.015529 0.094786 0.1219 -0.057012 0.14052 0.23093 0.074804 -0.15869 0.20409 0.07176 -0.019364 -0.045408 -0.036235 0.036968 -0.012114 0.16172 0.18733 -0.1548 0.06773 0.16503 0.19453 0.13282 0.008036 0.010448 0.11 -0.08294 -0.16666 0.1696 0.10855 0.078075 -0.10262 -0.21252 0.055797 0.1814 -0.1667 0.39416 0.066901 -0.21553 -0.24889 0.0058952 -0.22815 -0.22596 0.089512 
is 0.13034 0.06489 -0.11317 -0.12462 -0.028585 -0.058153 -0.057061 -0.044802 0.055401 0.012442 0.072129 0.017272 -0.06417 0.12415 -0.093928 0.0079307 -0.12853 0.023249 -0.02921 -0.20165 0.00066219 0.17455 0.062255 0.092067 -0.32756 -0.12734 0.2187 0.16652 -0.060646 0.14727 -0.17447 0.027413 0.0043761 -0.0404 0.03921 0.0080938 0.14908 -0.12295 -0.057069 0.11599 0.38442 0.17244 0.11003 0.030217 -0.00050784 -0.17249 -0.19821 -0.037237 -0.21835 0.048503 0.0034318 0.33137 -0.22323 -0.17045 -0.037825 -0.082885 -0.015574 -0.024398 0.094718 0.12427 -0.059645 0.14816 0.2464 0.074444 -0.17007 0.22816 0.06699 -0.028463 -0.049999 -0.03919 0.043361 -0.01981 0.17489 0.20934 -0.15775 0.0761 0.17111 0.20367 0.1479 0.022743 0.0043518 0.12704 -0.094695 -0.1726 0.18472 0.11648 0.084132 -0.10605 -0.20974 0.0668 0.19486 -0.18166 0.41719 0.087961 -0.22846 -0.26929 0.0043903 -0.242 -0.23644 0.10017 
la 0.1041 0.052061 -0.11306 -0.096865 -0.0416 -0.043504 -0.053005 -0.02955 0.061124 5.3278e-05 0.073058 0.0083429 -0.051618 0.10558 -0.084404 0.0087745 -0.13015 0.0017679 -0.021464 -0.20873 -0.0082231 0.16494 0.05763 0.081869 -0.29325 -0.10778 0.22073 0.14764 -0.061352 0.13439 -0.17108 0.022 0.011756 -0.028756 0.031475 0.0057736 0.13226 -0.097576 -0.05978 0.10407 0.37242 0.16308 0.086585 0.04015 -0.012472 -0.17163 -0.17842 -0.020474 -0.21535 0.038841 -0.023469 0.29703 -0.22382 -0.14543 -0.037154 -0.080102 -0.033874 -0.0075499 0.10134 0.12886 -0.06029 0.12984 0.22828 0.085342 -0.14453 0.20718 0.086634 -0.026306 -0.037914 -0.027148 0.025109 -0.0040839 0.16231 0.17538 -0.16355 0.063872 0.15141 0.19626 0.13605 0.009693 0.013383 0.095301 -0.068022 -0.16489 0.1626 0.10615 0.06886 -0.10912 -0.21404 0.041688 0.18777 -0.15825 0.39052 0.05633 -0.21036 -0.23708 0.0056154 -0.22062 -0.22006 0.091702 
à 0.099283 0.056779 -0.11142 -0.10094 -0.041846 -0.043327 -0.060674 -0.027358 0.061772 0.0059822 0.065979 0.010295 -0.042221 0.10429 -0.083292 0.012541 -0.13543 0.0045383 -0.018698 -0.20568 -0.0093315 0.16454 0.055912 0.089617 -0.28348 -0.10451 0.22344 0.1357 -0.06049 0.12409 -0.17065 0.019453 0.012628 -0.026078 0.026437 0.0035075 0.13078 -0.099571 -0.06235 0.1143 0.36734 0.1604 0.08023 0.036139 -0.0075245 -0.17573 -0.18765 -0.01587 -0.20927 0.035031 -0.027703 0.29686 -0.22548 -0.13746 -0.042941 -0.075164 -0.035717 -0.0010728 0.10784 0.1268 -0.044703 0.12258 0.23355 0.085585 -0.1429 0.19599 0.091176 -0.028015 -0.037531 -0.029139 0.020239 -1.4405e-05 0.16068 0.16657 -0.16135 0.061928 0.15529 0.19084 0.12711 -0.0058573 0.013712 0.090518 -0.068738 -0.15939 0.16379 0.10798 0.067079 -0.10468 -0.2047 0.040741 0.18214 -0.15294 0.38538 0.049511 -0.21054 -0.2403 -0.0023042 -0.21689 -0.22009 0.090713 
- 0.11801 0.054035 -0.10548 -0.11362 -0.024935 -0.042584 -0.049005 -0.047125 0.051805 0.0074379 0.069383 0.0038484 -0.050295 0.1158 -0.089657 0.010074 -0.13111 0.008101 -0.02752 -0.21047 0.0032713 0.17232 0.06283 0.085171 -0.30984 -0.12833 0.22073 0.16251 -0.055923 0.15043 -0.1643 0.031747 0.0080798 -0.026057 0.039907 0.0031999 0.13027 -0.10797 -0.057943 0.10938 0.38182 0.17378 0.10206 0.038228 0.0049795 -0.17088 -0.19671 -0.03959 -0.21528 0.036233 0.00013508 0.32466 -0.21709 -0.15705 -0.045207 -0.085082 -0.023252 -0.023992 0.095429 0.12582 -0.069041 0.14643 0.23099 0.08215 -0.1566 0.21855 0.081328 -0.023615 -0.04783 -0.0295 0.032798 -0.020072 0.17139 0.19227 -0.16739 0.074566 0.16917 0.20061 0.13594 0.017283 0.010135 0.11683 -0.090796 -0.17348 0.17523 0.11742 0.075663 -0.10535 -0.21009 0.056095 0.18829 -0.17979 0.41297 0.063804 -0.22688 -0.25532 4.2675e-05 -0.23691 -0.23658 0.097551 
by 0.12222 0.059185 -0.114 -0.1111 -0.029794 -0.046901 -0.050016 -0.042855 0.053673 0.01003 0.068658 0.012723 -0.054183 0.11936 -0.085738 0.0099665 -0.12225 0.013342 -0.019876 -0.20047 -0.0043759 0.16756 0.061886 0.089488 -0.31355 -0.12455 0.21807 0.15435 -0.062081 0.14212 -0.16999 0.025292 0.0056521 -0.034534 0.036422 0.0064107 0.13916 -0.11141 -0.052085 0.11737 0.37807 0.16921 0.10444 0.027244 -0.0046541 -0.16885 -0.1924 -0.034157 -0.21934 0.051333 0.0024279 0.31413 -0.22337 -0.15983 -0.038312 -0.083785 -0.01802 -0.016985 0.093825 0.12457 -0.056935 0.14323 0.24048 0.07224 -0.16701 0.21667 0.072801 -0.024788 -0.04515 -0.040486 0.043627 -0.013284 0.17084 0.20131 -0.15684 0.073211 0.16572 0.20055 0.13305 0.015141 0.0068639 0.11619 -0.088533 -0.1723 0.17856 0.11107 0.085446 -0.095073 -0.21034 0.056517 0.18603 -0.17019 0.40914 0.075922 -0.22617 -0.25874 0.0056482 -0.23751 -0.23672 0.096989 
#EPFL 0.11349 0.059555 -0.11485 -0.11335 -0.034738 -0.051229 -0.054648 -0.043442 0.053834 0.0050967 0.071344 0.0083783 -0.052857 0.1195 -0.092776 0.010635 -0.1351 0.0095474 -0.021299 -0.20827 -0.0037558 0.17155 0.061376 0.092599 -0.31798 -0.12274 0.2235 0.16197 -0.063685 0.1461 -0.17671 0.032218 0.01055 -0.036684 0.038279 0.0060415 0.14042 -0.1117 -0.060641 0.12036 0.3905 0.17808 0.10109 0.034487 -0.0047548 -0.18063 -0.19635 -0.033114 -0.228 0.041081 -0.010598 0.32277 -0.2293 -0.16169 -0.04028 -0.08844 -0.024003 -0.010864 0.10207 0.1326 -0.061227 0.14988 0.24623 0.078222 -0.16568 0.22092 0.077325 -0.027099 -0.045309 -0.034362 0.035706 -0.0069427 0.17208 0.19376 -0.1651 0.069246 0.172 0.20717 0.14217 0.011893 0.012049 0.11281 -0.085287 -0.17456 0.1773 0.11703 0.078355 -0.11088 -0.22065 0.054025 0.19325 -0.17397 0.41779 0.071511 -0.23012 -0.26326 0.0023137 -0.23858 -0.23567 0.09678 
et 0.099057 0.05164 -0.10786 -0.09712 -0.045911 -0.037846 -0.051956 -0.034028 0.056677 0.0064066 0.07529 0.0050941 -0.047863 0.10519 -0.086428 0.015824 -0.13445 0.0060495 -0.014929 -0.1985 -0.0087085 0.16681 0.058512 0.087018 -0.29339 -0.10374 0.22054 0.14875 -0.059555 0.12816 -0.16966 0.0295 0.018228 -0.026377 0.034314 0.0097577 0.12814 -0.096353 -0.054749 0.11841 0.37212 0.1633 0.081571 0.031321 -0.0095226 -0.17718 -0.18245 -0.024474 -0.21156 0.037169 -0.022983 0.29362 -0.21976 -0.13634 -0.039091 -0.081698 -0.032965 -0.0043681 0.10695 0.13267 -0.053367 0.13095 0.22758 0.086049 -0.14488 0.19079 0.08723 -0.027721 -0.033767 -0.032684 0.029426 -0.0018409 0.15549 0.17641 -0.16714 0.062495 0.15801 0.18398 0.13359 0.0030686 0.011844 0.09946 -0.067745 -0.16527 0.15388 0.11192 0.064741 -0.11567 -0.2123 0.041772 0.18014 -0.15667 0.38264 0.050616 -0.21197 -0.24403 0.0015858 -0.21885 -0.2157 0.094963 
from 0.12129 0.058112 -0.11057 -0.11939 -0.030451 -0.049898 -0.052819 -0.04419 0.051312 0.0036016 0.065156 0.0086687 -0.057079 0.12245 -0.093517 0.013323 -0.12608 0.016279 -0.030361 -0.20075 -0.002491 0.16908 0.057821 0.089361 -0.31514 -0.12756 0.21408 0.15567 -0.05943 0.14467 -0.17043 0.026997 0.006728 -0.03357 0.043722 0.0068055 0.14232 -0.11647 -0.058583 0.11158 0.38113 0.17069 0.10283 0.027891 -0.00086391 -0.17451 -0.19043 -0.032211 -0.21449 0.044867 0.0018514 0.31853 -0.22225 -0.16061 -0.040705 -0.081819 -0.024008 -0.020873 0.091806 0.12758 -0.060216 0.14662 0.24121 0.073721 -0.16825 0.21886 0.070633 -0.027021 -0.046325 -0.038494 0.044152 -0.015283 0.16703 0.19878 -0.15844 0.067745 0.16437 0.19983 0.13449 0.018071 0.0084535 0.11095 -0.089085 -0.16887 0.17834 0.11046 0.087225 -0.10314 -0.212 0.059508 0.18142 -0.17963 0.40285 0.077067 -0.22153 -0.25625 0.0036124 -0.23576 -0.23468 0.098564 
&amp; 0.12057 0.056439 -0.11231 -0.11503 -0.031254 -0.052631 -0.051061 -0.043239 0.052625 0.0076342 0.068987 0.010974 -0.054978 0.11888 -0.093312 0.010426 -0.12693 0.014408 -0.024321 -0.19912 0.0015452 0.17138 0.055424 0.086934 -0.312 -0.1268 0.21518 0.15674 -0.063834 0.14646 -0.16832 0.027373 0.0083682 -0.034206 0.03968 0.0054318 0.1403 -0.11347 -0.05669 0.11698 0.37633 0.16769 0.10467 0.029331 0.0013889 -0.17232 -0.19115 -0.032983 -0.21488 0.045608 0.00091727 0.3208 -0.21734 -0.16128 -0.040783 -0.081512 -0.023373 -0.020649 0.094112 0.12645 -0.06356 0.14582 0.23809 0.072493 -0.16636 0.21833 0.068907 -0.026885 -0.042753 -0.037789 0.042559 -0.015187 0.16859 0.19732 -0.15925 0.067709 0.16474 0.2027 0.13624 0.015421 0.0080296 0.11765 -0.090214 -0.17198 0.17363 0.1129 0.084054 -0.10226 -0.20794 0.057793 0.18753 -0.17793 0.40757 0.074962 -0.2198 -0.25741 0.0039689 -0.23633 -0.23193 0.098014 
les 0.096481 0.048183 -0.10679 -0.083663 -0.051634 -0.039472 -0.053337 -0.034218 0.057421 0.0040651 0.068821 0.0059156 -0.042324 0.094319 -0.084382 0.012092 -0.12869 0.0023167 -0.012183 -0.19917 -0.0057687 0.15931 0.056432 0.083185 -0.2696 -0.099401 0.20985 0.13259 -0.059672 0.12616 -0.16609 0.025495 0.0086451 -0.029352 0.031159 -0.0039334 0.12467 -0.095067 -0.057926 0.10451 0.35325 0.15868 0.081149 0.033108 -0.020615 -0.16175 -0.17418 -0.022743 -0.20173 0.037313 -0.02278 0.27394 -0.21545 -0.12916 -0.039175 -0.072194 -0.031776 -0.0075188 0.10294 0.12473 -0.050038 0.11727 0.22092 0.083146 -0.13612 0.18703 0.086326 -0.025134 -0.032664 -0.027916 0.020318 0.0046087 0.15251 0.16335 -0.16137 0.064359 0.15038 0.18909 0.1313 -0.0062757 0.0081074 0.089044 -0.06183 -0.15199 0.14743 0.10087 0.058826 -0.10799 -0.2034 0.035696 0.17903 -0.14826 0.3714 0.045151 -0.20308 -0.2318 0.0016264 -0.21438 -0.20767 0.088061 
des 0.10278 0.05406 -0.1137 -0.093036 -0.056912 -0.039922 -0.056752 -0.034003 0.064245 0.0025913 0.078071 0.0050853 -0.050406 0.10641 -0.087367 0.011312 -0.14116 0.0010226 -0.012729 -0.21094 -0.0040551 0.17217 0.062809 0.089264 -0.29409 -0.10138 0.22783 0.14866 -0.061341 0.13144 -0.18315 0.031584 0.015741 -0.027074 0.03122 0.0013574 0.13428 -0.097501 -0.06321 0.1179 0.38128 0.16972 0.081864 0.038838 -0.019551 -0.18152 -0.18983 -0.016859 -0.21618 0.042999 -0.035087 0.29807 -0.23044 -0.14017 -0.040985 -0.082702 -0.032345 -0.0044513 0.11548 0.13296 -0.052314 0.12533 0.24258 0.087802 -0.1398 0.20455 0.092713 -0.025401 -0.03272 -0.02753 0.017295 0.0028079 0.16639 0.17533 -0.17597 0.063963 0.16181 0.20369 0.14218 -0.0078061 0.017104 0.097143 -0.06913 -0.16296 0.163 0.10759 0.06709 -0.12331 -0.22369 0.039859 0.19659 -0.15697 0.39939 0.04854 -0.21959 -0.24985 0.0033876 -0.2266 -0.2187 0.097141 
pour 0.10921 0.052499 -0.11226 -0.099142 -0.038524 -0.041073 -0.051209 -0.034353 0.057329 0.0060857 0.071167 0.0073103 -0.04746 0.10576 -0.087826 0.0095133 -0.13313 0.00097038 -0.014464 -0.20181 -0.0038313 0.16243 0.059893 0.088316 -0.2954 -0.11005 0.2224 0.14938 -0.058975 0.14071 -0.17528 0.030857 0.010308 -0.033976 0.038126 0.001427 0.12955 -0.10263 -0.05908 0.10739 0.37513 0.16718 0.089275 0.035075 -0.012748 -0.17308 -0.18465 -0.026338 -0.21284 0.039127 -0.018476 0.30043 -0.22431 -0.14945 -0.040493 -0.079065 -0.029289 -0.0094957 0.10245 0.13093 -0.055597 0.13065 0.23623 0.081315 -0.14881 0.20509 0.085777 -0.028398 -0.037783 -0.030723 0.029695 -0.0057629 0.16012 0.17881 -0.16473 0.066326 0.16054 0.19516 0.13788 0.0044253 0.01662 0.10157 -0.072606 -0.16562 0.15976 0.11182 0.068317 -0.10827 -0.21438 0.046016 0.18603 -0.15951 0.39441 0.057829 -0.21689 -0.24718 0.0077863 -0.22715 -0.21729 0.094554 
le 0.10588 0.054739 -0.11663 -0.099007 -0.050059 -0.041159 -0.062696 -0.040112 0.055242 0.0070424 0.081102 0.010384 -0.051204 0.10849 -0.0871 0.0079146 -0.13773 0.0048497 -0.021125 -0.21614 -0.0055822 0.18033 0.061468 0.092265 -0.31318 -0.11936 0.23159 0.15127 -0.063007 0.14816 -0.18279 0.033311 0.013369 -0.033524 0.037439 -0.0014136 0.13611 -0.11301 -0.057534 0.12111 0.40188 0.17339 0.086541 0.030954 -0.010538 -0.17981 -0.18806 -0.026952 -0.22578 0.039441 -0.018496 0.31503 -0.23563 -0.15045 -0.041943 -0.078371 -0.034149 -0.013195 0.11274 0.13621 -0.061374 0.13551 0.24091 0.085197 -0.15397 0.20869 0.086066 -0.025797 -0.041172 -0.03508 0.029427 0.0021288 0.1678 0.18569 -0.17319 0.06889 0.1694 0.20474 0.13987 -0.00055014 0.0076208 0.10375 -0.074671 -0.17423 0.16806 0.11832 0.072257 -0.11621 -0.23046 0.05421 0.19811 -0.1644 0.41818 0.062542 -0.22651 -0.26311 0.0038551 -0.24349 -0.22935 0.09885 
en 0.097211 0.053787 -0.11077 -0.09924 -0.040407 -0.038229 -0.05391 -0.034068 0.056091 0.0016622 0.076549 0.0055479 -0.053401 0.10864 -0.075112 0.012957 -0.13412 0.00072577 -0.016824 -0.20388 -0.008712 0.16731 0.060302 0.087601 -0.29522 -0.11126 0.22331 0.14629 -0.061698 0.13235 -0.17225 0.033843 0.0084435 -0.034039 0.031872 0.004628 0.136 -0.10878 -0.056412 0.1082 0.37171 0.16556 0.085016 0.035788 -0.012673 -0.17199 -0.18455 -0.020503 -0.21248 0.040864 -0.016005 0.30251 -0.22057 -0.14161 -0.03846 -0.078763 -0.035284 -0.0098393 0.097126 0.1312 -0.05462 0.13431 0.22888 0.082708 -0.15025 0.20327 0.084978 -0.030861 -0.034203 -0.035994 0.030846 -0.010877 0.15839 0.17055 -0.1635 0.068166 0.16022 0.1942 0.13173 -4.6203e-05 0.016392 0.099463 -0.066184 -0.16239 0.16052 0.10238 0.0695 -0.11146 -0.2111 0.041517 0.18495 -0.16047 0.39196 0.062714 -0.21138 -0.24406 0.0083165 -0.22293 -0.22673 0.094285 
The 0.11663 0.05966 -0.10983 -0.11767 -0.03015 -0.058633 -0.057438 -0.045364 0.048917 0.0038706 0.065658 0.012573 -0.054383 0.12059 -0.091812 0.0098419 -0.12539 0.014689 -0.027078 -0.20244 -0.00091926 0.16974 0.057006 0.08892 -0.30886 -0.12389 0.2105 0.15251 -0.054248 0.14487 -0.16756 0.027882 0.0059006 -0.032254 0.040193 0.0056554 0.13955 -0.11421 -0.055546 0.11648 0.37778 0.16821 0.10251 0.032206 -0.0008151 -0.1711 -0.18965 -0.037836 -0.21082 0.042011 0.0021375 0.31817 -0.22002 -0.1603 -0.041771 -0.082703 -0.021746 -0.018444 0.093248 0.12659 -0.059446 0.14325 0.2404 0.074086 -0.16647 0.21531 0.070697 -0.026909 -0.039915 -0.037015 0.039398 -0.016576 0.1724 0.19895 -0.1571 0.071237 0.16413 0.19505 0.13754 0.012929 0.0093877 0.11932 -0.084598 -0.16954 0.1767 0.11278 0.081275 -0.10166 -0.20962 0.060666 0.18545 -0.183 0.40139 0.075594 -0.22335 -0.25314 0.005719 -0.23257 -0.23546 0.095874 
! 0.1132 0.04888 -0.1197 -0.10591 -0.044407 -0.050364 -0.051234 -0.035283 0.060813 0.0049607 0.068002 0.0070715 -0.059618 0.10861 -0.092479 0.0081696 -0.13748 0.014935 -0.021588 -0.20927 -0.0047217 0.1657 0.051417 0.092534 -0.30059 -0.12133 0.21952 0.15512 -0.060477 0.14933 -0.16942 0.02119 0.0032972 -0.034632 0.037872 0.0085401 0.13794 -0.11285 -0.054355 0.11207 0.37412 0.16849 0.10041 0.031985 -0.0088527 -0.17217 -0.18932 -0.032982 -0.21314 0.034382 -0.0095513 0.31442 -0.22157 -0.16046 -0.042774 -0.079253 -0.030587 -0.0088428 0.10093 0.13086 -0.062925 0.14064 0.23751 0.08748 -0.16263 0.2136 0.073029 -0.022598 -0.044397 -0.03726 0.028288 -0.0038996 0.17081 0.18648 -0.16524 0.063011 0.1636 0.20283 0.13556 -0.00097948 0.015568 0.10827 -0.081544 -0.16027 0.16594 0.11911 0.075747 -0.10328 -0.22238 0.055728 0.18845 -0.17238 0.39832 0.05734 -0.21986 -0.24505 0.0069153 -0.22619 -0.23509 0.098269 
you 0.13311 0.057104 -0.11476 -0.12718 -0.031568 -0.062061 -0.052046 -0.045851 0.047018 0.011064 0.073826 0.019567 -0.062289 0.1262 -0.09717 0.0075288 -0.12695 0.021756 -0.024947 -0.20578 0.0012373 0.18097 0.060213 0.090033 -0.33154 -0.13144 0.22603 0.16387 -0.064713 0.14931 -0.17874 0.035224 0.0017714 -0.037257 0.04213 0.0052779 0.14886 -0.12492 -0.062111 0.11646 0.39721 0.18165 0.11395 0.027735 -0.0010186 -0.18391 -0.20423 -0.038841 -0.22601 0.051242 0.0020834 0.34066 -0.23119 -0.17089 -0.046096 -0.087716 -0.015951 -0.022247 0.099859 0.13542 -0.059568 0.15786 0.25207 0.07323 -0.181 0.23042 0.071864 -0.024691 -0.043707 -0.046035 0.052473 -0.021059 0.18284 0.21025 -0.16655 0.066529 0.17545 0.21293 0.14412 0.021526 0.010143 0.1244 -0.094878 -0.17556 0.18297 0.11568 0.08883 -0.10382 -0.2171 0.067419 0.19007 -0.19023 0.42372 0.081009 -0.23523 -0.26956 0.004328 -0.24821 -0.2428 0.10024 
are 0.1282 0.057542 -0.11426 -0.12017 -0.031538 -0.061554 -0.05545 -0.039592 0.052393 0.0092618 0.068906 0.0072352 -0.058706 0.12634 -0.095042 0.0093112 -0.13158 0.014167 -0.024701 -0.2098 -0.004206 0.18091 0.055771 0.09271 -0.32847 -0.12609 0.22537 0.163 -0.0633 0.15149 -0.17759 0.028879 0.008214 -0.034036 0.040809 0.0095194 0.14517 -0.11991 -0.060481 0.11808 0.39592 0.17853 0.10762 0.033099 0.00015225 -0.18152 -0.20071 -0.030575 -0.22709 0.044133 0.0014742 0.3338 -0.22785 -0.16817 -0.04328 -0.085542 -0.023385 -0.015807 0.10113 0.13526 -0.065299 0.1472 0.25114 0.07739 -0.17642 0.22845 0.077075 -0.028847 -0.047049 -0.042163 0.04018 -0.014986 0.17813 0.20787 -0.1658 0.068956 0.17104 0.20715 0.14495 0.011248 0.0081915 0.12271 -0.094145 -0.18203 0.18169 0.11559 0.088353 -0.10441 -0.21707 0.06096 0.1911 -0.1851 0.42458 0.082073 -0.23472 -0.2665 0.0040664 -0.24959 -0.24043 0.10053 
an 0.11854 0.060019 -0.10934 -0.12463 -0.024426 -0.056841 -0.046223 -0.044852 0.04832 0.0077107 0.073593 0.013832 -0.056534 0.12544 -0.089161 0.014735 -0.12224 0.01813 -0.020722 -0.20393 0.0041421 0.17911 0.058299 0.088931 -0.32612 -0.12583 0.21778 0.16177 -0.061907 0.14803 -0.17414 0.026155 0.00086646 -0.035836 0.038233 0.0021344 0.14437 -0.12534 -0.06483 0.11502 0.38445 0.17455 0.1095 0.032148 -0.0025651 -0.17661 -0.19293 -0.03461 -0.21899 0.054716 0.0067941 0.33285 -0.22771 -0.16064 -0.036278 -0.082576 -0.02099 -0.018982 0.090197 0.12976 -0.058806 0.15669 0.24763 0.07424 -0.16688 0.22455 0.065523 -0.029172 -0.044807 -0.045408 0.039136 -0.022064 0.17524 0.20147 -0.16078 0.062756 0.16484 0.20747 0.14255 0.013099 0.012992 0.11355 -0.097203 -0.17293 0.18025 0.11232 0.091182 -0.10478 -0.21926 0.058347 0.18367 -0.18067 0.41431 0.079896 -0.219 -0.26447 0.0055616 -0.24161 -0.24546 0.096781 
#VDtech 0.10864 0.052832 -0.10259 -0.10386 -0.026735 -0.04769 -0.048244 -0.036743 0.046525 0.006199 0.062017 0.012538 -0.049499 0.10644 -0.084939 0.010513 -0.11663 0.014653 -0.020378 -0.18615 -0.0022868 0.15722 0.050922 0.080483 -0.28477 -0.11436 0.19749 0.14372 -0.057056 0.13184 -0.15794 0.023677 0.0046397 -0.02979 0.037563 0.0026517 0.12786 -0.10565 -0.054746 0.10352 0.34803 0.15451 0.094485 0.029035 -0.0023691 -0.15978 -0.17563 -0.030677 -0.20089 0.040631 -0.0001976 0.29162 -0.20188 -0.14574 -0.038647 -0.073404 -0.022475 -0.015391 0.087053 0.11735 -0.054864 0.13254 0.22018 0.072101 -0.14904 0.19747 0.067954 -0.023137 -0.039879 -0.034367 0.03566 -0.014056 0.15762 0.17804 -0.14955 0.064846 0.15052 0.185 0.12495 0.011377 0.0058542 0.10394 -0.077403 -0.15598 0.15838 0.10059 0.074885 -0.094718 -0.19363 0.051886 0.17095 -0.16226 0.37561 0.068399 -0.20218 -0.2346 0.0072915 -0.21603 -0.21322 0.087537 
our 0.12872 0.056976 -0.11598 -0.12207 -0.037279 -0.050372 -0.061938 -0.037728 0.059144 0.013699 0.080774 0.0064624 -0.056558 0.12533 -0.094858 0.0093428 -0.14134 0.0046104 -0.024695 -0.21564 -0.0039092 0.18356 0.065112 0.094165 -0.33583 -0.12769 0.24105 0.16441 -0.069291 0.15544 -0.18651 0.027943 0.010758 -0.034346 0.041109 0.0050587 0.14626 -0.11799 -0.063409 0.12612 0.41821 0.18849 0.10187 0.033467 -0.006253 -0.18728 -0.20573 -0.034361 -0.2348 0.050455 -0.01038 0.34528 -0.24228 -0.17233 -0.045382 -0.093583 -0.024082 -0.016961 0.1073 0.13932 -0.062123 0.15006 0.26356 0.082032 -0.17224 0.22933 0.081364 -0.02877 -0.040072 -0.040633 0.043298 -0.010821 0.18158 0.20821 -0.17995 0.072031 0.1751 0.21796 0.15068 0.010767 0.014002 0.12389 -0.090836 -0.18516 0.18287 0.12212 0.083987 -0.12019 -0.23686 0.060229 0.2068 -0.18495 0.44059 0.077349 -0.24272 -0.27963 0.0082014 -0.25308 -0.24901 0.10721 
that 0.13037 0.059176 -0.10622 -0.12669 -0.030828 -0.053134 -0.056021 -0.041735 0.047254 0.010476 0.067285 0.010404 -0.059053 0.1228 -0.098747 0.0093318 -0.1246 0.016583 -0.024738 -0.19948 0.00098885 0.17397 0.057487 0.088475 -0.32494 -0.12733 0.2166 0.16809 -0.064085 0.14747 -0.16905 0.026559 0.0035033 -0.03605 0.044176 0.0039196 0.14394 -0.12049 -0.058315 0.11555 0.38778 0.17966 0.10879 0.032172 0.0026988 -0.17684 -0.19867 -0.035955 -0.21807 0.05447 0.0080589 0.33264 -0.226 -0.16909 -0.03994 -0.083588 -0.013957 -0.016068 0.093556 0.12929 -0.057833 0.15787 0.24713 0.069487 -0.18037 0.22415 0.063179 -0.023256 -0.049126 -0.04383 0.047466 -0.016862 0.17479 0.20934 -0.1614 0.064307 0.1763 0.20499 0.14511 0.019401 0.013984 0.12179 -0.098075 -0.17339 0.18317 0.11167 0.088648 -0.10402 -0.21403 0.066878 0.19029 -0.18561 0.41921 0.08913 -0.22901 -0.26702 0.0074496 -0.24261 -0.23553 0.099773 
du 0.10412 0.05485 -0.10808 -0.10708 -0.038089 -0.040589 -0.056059 -0.035028 0.056584 0.0036463 0.070444 0.0069509 -0.046643 0.11313 -0.080896 0.012529 -0.12771 0.0037789 -0.022064 -0.20133 0.0032961 0.15938 0.054072 0.08256 -0.28981 -0.1116 0.21854 0.14659 -0.060797 0.13447 -0.16823 0.030866 0.011036 -0.032849 0.029393 0.0019555 0.13301 -0.107 -0.061284 0.10716 0.36867 0.15878 0.091987 0.033782 -0.012771 -0.17195 -0.17929 -0.024879 -0.20584 0.04654 -0.017249 0.2967 -0.21833 -0.14173 -0.037648 -0.079187 -0.02867 -0.0068441 0.098155 0.124 -0.052007 0.13149 0.22961 0.07959 -0.14446 0.20094 0.083361 -0.030045 -0.037784 -0.029031 0.03576 -0.0049089 0.15727 0.18284 -0.16141 0.063208 0.16059 0.19082 0.1326 -6.625e-05 0.017663 0.097968 -0.067918 -0.16779 0.15986 0.11193 0.067745 -0.1089 -0.2097 0.049314 0.18514 -0.15662 0.3892 0.058776 -0.21396 -0.24846 0.0017446 -0.22162 -0.21405 0.087152 
sur 0.10454 0.052418 -0.10873 -0.097471 -0.038648 -0.039691 -0.057137 -0.037274 0.055494 0.003762 0.07309 0.011406 -0.051185 0.10872 -0.086329 0.0081877 -0.13226 0.0087326 -0.014338 -0.20341 -0.0073787 0.16634 0.062565 0.085301 -0.29261 -0.10913 0.21799 0.14355 -0.058387 0.13739 -0.16988 0.028019 0.0071877 -0.030487 0.035878 0.003994 0.12752 -0.102 -0.056668 0.10832 0.36809 0.16515 0.084879 0.030827 -0.0085055 -0.16886 -0.18439 -0.025226 -0.21474 0.04005 -0.016369 0.30331 -0.21824 -0.14633 -0.040232 -0.080444 -0.024788 -0.011074 0.10034 0.12715 -0.055052 0.13285 0.23292 0.081397 -0.14719 0.1978 0.082458 -0.024213 -0.036141 -0.032871 0.03056 -0.010418 0.16025 0.17911 -0.16277 0.065912 0.15474 0.19234 0.13511 0.0086402 0.01188 0.10037 -0.073547 -0.16518 0.16246 0.10872 0.072732 -0.10751 -0.21505 0.048355 0.18061 -0.15717 0.38917 0.0627 -0.21748 -0.24839 0.00411 -0.22551 -0.21877 0.094294 
EPFL 0.11055 0.053623 -0.10686 -0.10616 -0.033265 -0.047035 -0.050557 -0.039094 0.0487 0.0087942 0.065276 0.0090722 -0.051022 0.11279 -0.09223 0.011215 -0.13117 0.012729 -0.017085 -0.1946 -0.0029138 0.16017 0.061285 0.088101 -0.30125 -0.11711 0.21273 0.15621 -0.058108 0.13846 -0.16867 0.029516 0.0057629 -0.035036 0.039037 0.0060638 0.13486 -0.10956 -0.057537 0.11507 0.37006 0.16817 0.099798 0.035113 -0.0065997 -0.17169 -0.18767 -0.035927 -0.21541 0.039143 -0.0074582 0.30408 -0.21586 -0.15177 -0.037493 -0.083583 -0.022105 -0.0098373 0.098037 0.12336 -0.06021 0.14252 0.23351 0.076295 -0.15537 0.20848 0.069455 -0.023446 -0.040704 -0.030832 0.037445 -0.0081662 0.1648 0.19035 -0.15801 0.062515 0.1682 0.19536 0.13333 0.01421 0.0091116 0.10918 -0.083437 -0.1686 0.16627 0.11213 0.080039 -0.10373 -0.20793 0.052699 0.1808 -0.16813 0.39754 0.070285 -0.2181 -0.25289 0.0020871 -0.22885 -0.22398 0.093989 
be 0.12804 0.060191 -0.11687 -0.12876 -0.022325 -0.055847 -0.058917 -0.035097 0.052906 0.011976 0.067947 0.014795 -0.057799 0.12141 -0.097556 0.0069194 -0.13118 0.01293 -0.019916 -0.20137 -0.004142 0.18072 0.056642 0.093658 -0.32373 -0.12943 0.22039 0.15834 -0.064048 0.14514 -0.17624 0.029736 0.0067336 -0.034728 0.034364 0.0046272 0.14372 -0.1258 -0.066564 0.11732 0.39963 0.18185 0.10636 0.024897 0.0052365 -0.17939 -0.20307 -0.036556 -0.2229 0.055716 0.0021422 0.34012 -0.22654 -0.17651 -0.039525 -0.093584 -0.020774 -0.014475 0.094298 0.13527 -0.061747 0.15185 0.2595 0.075914 -0.172 0.23075 0.070809 -0.029648 -0.045265 -0.047223 0.042561 -0.014689 0.17798 0.21601 -0.16478 0.065452 0.17483 0.2083 0.14411 0.015722 0.010836 0.11842 -0.092787 -0.17401 0.18171 0.11192 0.088946 -0.10712 -0.22722 0.065277 0.19238 -0.18909 0.42268 0.076954 -0.23416 -0.26685 0.0071671 -0.24235 -0.24231 0.10234 
about 0.12378 0.058699 -0.11057 -0.12148 -0.030293 -0.049893 -0.051892 -0.039678 0.051255 0.0067944 0.07024 0.011128 -0.056807 0.11909 -0.092212 0.0088268 -0.12606 0.01475 -0.025637 -0.20514 -0.0020737 0.17185 0.057107 0.091978 -0.31934 -0.12708 0.2202 0.1599 -0.063369 0.14573 -0.17427 0.02749 0.0044626 -0.03145 0.040047 0.0034838 0.14457 -0.11851 -0.057196 0.11561 0.38653 0.17144 0.10587 0.030442 -0.002745 -0.17674 -0.19425 -0.031541 -0.22031 0.046565 0.00074739 0.32275 -0.2245 -0.15915 -0.040152 -0.087938 -0.022881 -0.019276 0.09612 0.12613 -0.062438 0.1511 0.24227 0.075686 -0.1702 0.21963 0.070444 -0.023698 -0.04445 -0.042193 0.044641 -0.017614 0.16996 0.2017 -0.16003 0.069211 0.17219 0.20299 0.13636 0.015677 0.010738 0.11814 -0.089823 -0.17324 0.17708 0.11464 0.082647 -0.10119 -0.21709 0.06238 0.18658 -0.17809 0.41175 0.076486 -0.2253 -0.26038 0.006838 -0.23743 -0.23521 0.097048 
A 0.10851 0.05347 -0.10391 -0.1056 -0.027202 -0.04401 -0.047192 -0.039525 0.048744 0.0037991 0.061311 0.0023986 -0.054926 0.10486 -0.088068 0.0032742 -0.11875 0.020647 -0.01965 -0.19465 0.00025636 0.16054 0.05924 0.081525 -0.28668 -0.11857 0.19756 0.1402 -0.059749 0.12531 -0.1586 0.02089 0.00075298 -0.037046 0.02953 0.0073144 0.1293 -0.11781 -0.062926 0.10342 0.35523 0.15803 0.088746 0.030884 0.00087672 -0.17032 -0.17155 -0.032508 -0.20495 0.039038 -0.0010822 0.29612 -0.20446 -0.15266 -0.045827 -0.085101 -0.023543 -0.013802 0.08338 0.12311 -0.059812 0.14246 0.22443 0.073511 -0.16484 0.20654 0.065937 -0.024451 -0.050582 -0.03398 0.029368 -0.011966 0.16136 0.1773 -0.15591 0.063638 0.1566 0.19441 0.12229 0.014919 0.0072494 0.10124 -0.08016 -0.16341 0.15752 0.10002 0.073333 -0.09402 -0.19747 0.0527 0.17332 -0.16485 0.38457 0.066314 -0.2049 -0.24599 0.0025559 -0.23232 -0.22461 0.086616 
new 0.12058 0.059896 -0.11246 -0.11778 -0.030109 -0.054571 -0.056517 -0.042507 0.052388 0.01351 0.073076 0.0096977 -0.053123 0.12227 -0.096233 0.0074598 -0.13173 0.015041 -0.026858 -0.20528 -0.0014682 0.17181 0.06155 0.090965 -0.32122 -0.12495 0.22 0.15771 -0.061373 0.14322 -0.17112 0.027479 0.0044246 -0.034234 0.045208 0.0037112 0.14505 -0.11613 -0.060282 0.11719 0.39064 0.17517 0.10038 0.029989 -0.0012074 -0.17839 -0.19903 -0.031579 -0.22116 0.052056 -0.00055094 0.32851 -0.22784 -0.16131 -0.04284 -0.083348 -0.024339 -0.019909 0.098349 0.12894 -0.059119 0.15131 0.2467 0.081354 -0.17302 0.22285 0.075232 -0.027109 -0.048289 -0.043168 0.043243 -0.01066 0.1714 0.20435 -0.16303 0.069454 0.17392 0.20802 0.13967 0.016209 0.012711 0.12168 -0.095421 -0.17225 0.17954 0.11344 0.088482 -0.10552 -0.21627 0.060925 0.18905 -0.17652 0.4142 0.083949 -0.2274 -0.26193 0.0057147 -0.24155 -0.23507 0.09602 
@epfl 0.12729 0.057836 -0.11787 -0.12206 -0.036927 -0.054862 -0.057289 -0.04368 0.057029 0.0070681 0.075344 0.010821 -0.05606 0.12593 -0.098183 0.0081593 -0.13889 0.010876 -0.024628 -0.21856 -0.0015126 0.18193 0.061638 0.093265 -0.32704 -0.12746 0.23608 0.17148 -0.06843 0.15485 -0.18324 0.030492 0.0092377 -0.039238 0.044661 0.0045006 0.14967 -0.12018 -0.063368 0.12201 0.40879 0.18096 0.10603 0.037082 -0.0053248 -0.18535 -0.20527 -0.034741 -0.23141 0.049185 -0.0072434 0.34064 -0.2398 -0.17108 -0.045554 -0.091012 -0.025822 -0.013863 0.099829 0.13988 -0.058339 0.155 0.25921 0.084534 -0.17453 0.2299 0.078137 -0.026485 -0.045825 -0.039406 0.042312 -0.013728 0.18085 0.2093 -0.17148 0.070916 0.17815 0.21453 0.14887 0.013504 0.0087678 0.12305 -0.090213 -0.18023 0.18482 0.11966 0.083363 -0.11483 -0.23203 0.061479 0.20144 -0.18473 0.43559 0.077264 -0.23901 -0.27793 0.0074662 -0.25213 -0.2461 0.10293 
can 0.12672 0.059095 -0.11174 -0.12544 -0.029614 -0.057736 -0.058123 -0.042994 0.052205 0.010747 0.069735 0.010481 -0.060508 0.12509 -0.095921 0.013174 -0.12971 0.013073 -0.019776 -0.20426 1.7993e-05 0.18065 0.062884 0.093005 -0.32848 -0.12971 0.22602 0.1643 -0.064119 0.15232 -0.17877 0.029127 0.0022746 -0.036409 0.041071 0.0031004 0.14668 -0.12217 -0.065394 0.11382 0.39166 0.17777 0.10809 0.028138 -0.0017832 -0.18272 -0.20018 -0.032848 -0.22373 0.052867 -0.00041449 0.33709 -0.23116 -0.16725 -0.038487 -0.087694 -0.017752 -0.022793 0.09714 0.13099 -0.058519 0.15637 0.2491 0.07465 -0.17385 0.22877 0.073149 -0.031551 -0.048248 -0.042207 0.043461 -0.01824 0.1731 0.20325 -0.16382 0.069806 0.17341 0.20868 0.14336 0.013549 0.012411 0.12358 -0.093992 -0.17841 0.18061 0.11145 0.087763 -0.10776 -0.22541 0.061155 0.19346 -0.17877 0.42141 0.083543 -0.22972 -0.26533 0.0081713 -0.24805 -0.23998 0.10142 
Swiss 0.12541 0.060643 -0.11276 -0.12551 -0.032147 -0.054737 -0.055321 -0.042304 0.049522 0.011427 0.073824 0.010493 -0.0552 0.12704 -0.095092 0.00739 -0.13368 0.012495 -0.023032 -0.21171 -0.0018153 0.17413 0.060153 0.091896 -0.3263 -0.12852 0.22754 0.16552 -0.066177 0.14988 -0.17676 0.028266 0.0042862 -0.037485 0.043855 0.0058561 0.14706 -0.12154 -0.059938 0.12249 0.39775 0.17752 0.10876 0.029241 -0.0012877 -0.17917 -0.19801 -0.034142 -0.22637 0.046947 -0.0014116 0.33522 -0.22992 -0.1675 -0.043829 -0.087202 -0.02233 -0.018497 0.09942 0.13126 -0.063123 0.15464 0.24947 0.072816 -0.17186 0.2254 0.07477 -0.026246 -0.046728 -0.043691 0.044074 -0.014079 0.17797 0.20666 -0.16501 0.075734 0.17597 0.20656 0.14298 0.015195 0.0095705 0.12173 -0.093393 -0.18025 0.18209 0.1155 0.083974 -0.11013 -0.21976 0.064021 0.19614 -0.18409 0.42876 0.078176 -0.22957 -0.26792 0.0030235 -0.24635 -0.24238 0.10196 
I 0.12538 0.06114 -0.12245 -0.11375 -0.030266 -0.057462 -0.053497 -0.046506 0.052442 0.0068059 0.070807 0.016282 -0.060773 0.12395 -0.10301 0.0061301 -0.12428 0.015256 -0.032117 -0.21564 -0.011489 0.17685 0.054212 0.096121 -0.31957 -0.13097 0.22618 0.17123 -0.066568 0.15073 -0.18844 0.025241 0.0075416 -0.029533 0.034199 -0.0018029 0.15131 -0.1271 -0.055151 0.11764 0.3943 0.18084 0.11427 0.032906 -0.00035654 -0.17707 -0.19984 -0.035629 -0.22125 0.040978 0.0062692 0.33645 -0.2308 -0.17381 -0.047011 -0.081601 -0.024916 -0.017392 0.10241 0.1395 -0.062485 0.1609 0.23841 0.077178 -0.18383 0.22952 0.072226 -0.023723 -0.056885 -0.044489 0.039004 -0.023196 0.18026 0.19962 -0.17159 0.071242 0.16372 0.2097 0.14173 0.01461 0.010018 0.11951 -0.091498 -0.17512 0.17653 0.11673 0.090591 -0.10805 -0.20907 0.07179 0.19401 -0.1885 0.42711 0.079725 -0.22362 -0.2626 0.0095223 -0.25651 -0.24023 0.10891 
have 0.12833 0.058606 -0.11216 -0.12589 -0.029978 -0.054468 -0.056495 -0.039427 0.055057 0.0075777 0.070392 0.011304 -0.056609 0.1262 -0.094651 0.010129 -0.13222 0.016365 -0.027584 -0.21198 0.00049608 0.17917 0.059593 0.093797 -0.3333 -0.13019 0.22702 0.16407 -0.071077 0.1518 -0.18056 0.029365 0.0051471 -0.038088 0.044188 0.0094169 0.15008 -0.12166 -0.063157 0.1208 0.39834 0.18188 0.10703 0.028875 -0.0034192 -0.18302 -0.20023 -0.033525 -0.22638 0.053153 -0.00064416 0.33913 -0.23538 -0.16883 -0.044343 -0.088565 -0.02171 -0.020426 0.10301 0.13052 -0.063213 0.15655 0.25361 0.075867 -0.17905 0.23148 0.075004 -0.029991 -0.04674 -0.04139 0.047095 -0.016493 0.18024 0.21096 -0.16932 0.074088 0.17453 0.21243 0.14741 0.018084 0.014622 0.12255 -0.093464 -0.17697 0.188 0.1168 0.089073 -0.10738 -0.22473 0.062861 0.195 -0.1855 0.43303 0.083247 -0.23178 -0.27441 0.0048398 -0.25076 -0.24767 0.099584 
au 0.11117 0.052671 -0.10643 -0.09478 -0.041057 -0.039225 -0.058563 -0.042311 0.058609 0.0067808 0.078228 0.0092868 -0.043541 0.10872 -0.087697 0.0069031 -0.12632 0.0055099 -0.01922 -0.20352 -0.0038016 0.16609 0.060182 0.083094 -0.29445 -0.10775 0.21677 0.14722 -0.058155 0.13881 -0.16948 0.029773 0.015084 -0.031206 0.031847 0.0040435 0.12984 -0.10393 -0.050899 0.1096 0.37312 0.16339 0.086979 0.034499 -0.01131 -0.17355 -0.19026 -0.027604 -0.21701 0.040462 -0.014843 0.29623 -0.22339 -0.14412 -0.043432 -0.078412 -0.030886 -0.010137 0.10287 0.12975 -0.052872 0.12659 0.22632 0.084884 -0.14163 0.20397 0.086984 -0.024676 -0.039953 -0.031587 0.027477 -0.0027405 0.16152 0.18116 -0.16403 0.072066 0.16102 0.1931 0.13644 -0.0025926 0.015683 0.099299 -0.071252 -0.17075 0.15761 0.10974 0.062652 -0.11038 -0.21332 0.049397 0.18376 -0.16224 0.39274 0.052489 -0.21439 -0.24656 0.0049319 -0.22486 -0.21514 0.090652 
: 0.10899 0.05784 -0.1054 -0.11004 -0.034893 -0.047183 -0.051036 -0.031455 0.051672 0.0029334 0.073212 0.010997 -0.056618 0.10765 -0.083693 0.010033 -0.13155 0.0042919 -0.026589 -0.19869 -0.0054014 0.15661 0.06089 0.088606 -0.29311 -0.11865 0.21397 0.15432 -0.058202 0.14068 -0.17242 0.028344 0.0042935 -0.024501 0.03158 0.0031835 0.13342 -0.10284 -0.05682 0.10881 0.36966 0.1719 0.092569 0.031785 -0.00094891 -0.1748 -0.18703 -0.026102 -0.2028 0.046752 -0.0052351 0.30686 -0.2194 -0.15312 -0.037598 -0.076437 -0.034627 -0.018003 0.093913 0.11989 -0.057948 0.12976 0.23496 0.069616 -0.1522 0.20722 0.069941 -0.022273 -0.042417 -0.044333 0.033731 -0.011661 0.16559 0.18787 -0.16582 0.075446 0.16349 0.19235 0.1349 0.0094677 0.0080075 0.099595 -0.075033 -0.15612 0.16845 0.10562 0.078904 -0.10433 -0.20488 0.054394 0.17695 -0.16879 0.39368 0.072834 -0.21451 -0.24097 0.0052566 -0.21587 -0.23086 0.095629 
un 0.11166 0.050287 -0.10849 -0.10176 -0.034998 -0.041401 -0.048781 -0.035263 0.054106 0.0064106 0.074129 0.0043459 -0.04314 0.10707 -0.087307 0.012164 -0.12469 0.0087356 -0.016386 -0.19983 -0.0027627 0.1674 0.058992 0.082322 -0.28706 -0.11006 0.21401 0.15407 -0.062225 0.13707 -0.16643 0.02682 0.0086995 -0.028976 0.032042 -0.00035159 0.13252 -0.097251 -0.060905 0.11316 0.36384 0.15818 0.083522 0.034434 -0.0023564 -0.16483 -0.18492 -0.027995 -0.21196 0.043114 -0.010514 0.29312 -0.21406 -0.14143 -0.034079 -0.081474 -0.02757 -0.01276 0.090103 0.12628 -0.053652 0.13112 0.22804 0.07595 -0.14566 0.20569 0.078587 -0.025341 -0.035823 -0.034313 0.033909 -0.0077006 0.1602 0.17492 -0.15584 0.062572 0.15726 0.19209 0.13577 0.0019729 0.0083069 0.097454 -0.073458 -0.16324 0.15746 0.10645 0.072042 -0.10783 -0.21555 0.050508 0.17869 -0.16326 0.38975 0.058911 -0.21097 -0.24406 0.0025747 -0.22057 -0.21691 0.09119 
New 0.11149 0.053144 -0.10063 -0.11223 -0.031673 -0.051019 -0.048462 -0.036351 0.048159 0.0080612 0.06661 0.013704 -0.050248 0.11162 -0.08634 0.012102 -0.11513 0.012747 -0.027629 -0.18747 -0.00050137 0.15624 0.049122 0.079807 -0.29004 -0.1163 0.19802 0.13945 -0.057152 0.13693 -0.15665 0.026465 -0.0004042 -0.033378 0.036675 0.0025781 0.13239 -0.11178 -0.049615 0.10741 0.35172 0.15728 0.093541 0.024517 -0.00057129 -0.15888 -0.17648 -0.029018 -0.19897 0.040391 -0.0017585 0.30046 -0.20383 -0.15272 -0.037617 -0.076843 -0.022296 -0.017382 0.088383 0.11709 -0.051187 0.13518 0.22364 0.066763 -0.1525 0.20044 0.061152 -0.022132 -0.0434 -0.03594 0.035886 -0.010832 0.15643 0.17863 -0.14712 0.065275 0.15703 0.18815 0.12263 0.010921 0.010246 0.10489 -0.082682 -0.15949 0.15807 0.10405 0.076852 -0.095075 -0.19382 0.055499 0.17212 -0.16363 0.37347 0.070697 -0.20691 -0.23693 -0.00056274 -0.22225 -0.21418 0.084428 
| 0.10556 0.054792 -0.10344 -0.1013 -0.032159 -0.045078 -0.056664 -0.043257 0.052627 0.0086682 0.070298 0.016506 -0.041103 0.10667 -0.088961 0.0012604 -0.1135 0.012152 -0.020339 -0.19339 -0.0010497 0.14985 0.052318 0.07741 -0.27894 -0.11738 0.20922 0.1463 -0.052698 0.13365 -0.15922 0.032542 0.0055123 -0.034017 0.040333 0.003827 0.13405 -0.10372 -0.04841 0.10477 0.34641 0.15668 0.096957 0.027668 -0.0023342 -0.15828 -0.1793 -0.026144 -0.19576 0.046698 -0.0025703 0.29196 -0.20114 -0.14658 -0.032766 -0.06991 -0.02444 -0.017186 0.095143 0.12356 -0.058208 0.12964 0.22314 0.069891 -0.14459 0.19256 0.073268 -0.025879 -0.037559 -0.036852 0.040412 -0.018612 0.14583 0.1818 -0.1548 0.061686 0.15244 0.178 0.12078 0.015784 0.0089718 0.10302 -0.077179 -0.15565 0.15457 0.10119 0.076262 -0.089582 -0.20359 0.051115 0.17467 -0.16594 0.37217 0.06563 -0.20269 -0.23429 -0.00020163 -0.21823 -0.20567 0.089546 
more 0.12709 0.061256 -0.11649 -0.12095 -0.03286 -0.057729 -0.057739 -0.045419 0.05239 0.0068942 0.070308 0.013546 -0.062163 0.1245 -0.10016 0.010497 -0.13398 0.018406 -0.026661 -0.21239 -0.0058694 0.18145 0.058026 0.094739 -0.33172 -0.12694 0.2274 0.16551 -0.06471 0.15391 -0.17915 0.024544 0.0049378 -0.034296 0.042699 0.0058278 0.1504 -0.1215 -0.062239 0.12173 0.39798 0.18047 0.1069 0.030956 -0.00062679 -0.1824 -0.19957 -0.030933 -0.22777 0.050277 0.00032982 0.33511 -0.23271 -0.16999 -0.042746 -0.086564 -0.02365 -0.01778 0.10428 0.13452 -0.066757 0.15092 0.25302 0.080374 -0.17754 0.2295 0.078282 -0.028248 -0.051313 -0.041321 0.04124 -0.013281 0.17854 0.21004 -0.16672 0.076068 0.17432 0.21245 0.14565 0.012017 0.0095193 0.1213 -0.089514 -0.17802 0.18295 0.12171 0.086537 -0.10479 -0.22463 0.058078 0.20158 -0.18847 0.43202 0.08279 -0.2344 -0.26809 0.0052138 -0.25346 -0.24746 0.10183 
it 0.13035 0.05922 -0.11341 -0.12559 -0.035556 -0.058424 -0.058217 -0.047326 0.05032 0.0059003 0.075874 0.01581 -0.058618 0.13192 -0.096814 0.0058141 -0.13486 0.014694 -0.023215 -0.21042 -0.0037095 0.17114 0.060356 0.095444 -0.32995 -0.13424 0.22951 0.16414 -0.061893 0.15583 -0.1788 0.031234 0.0037772 -0.037013 0.043932 0.0039836 0.15115 -0.1237 -0.065399 0.1219 0.39889 0.1809 0.10715 0.030717 -0.0049258 -0.17877 -0.20383 -0.035028 -0.22454 0.050582 0.00073004 0.33378 -0.22782 -0.1698 -0.044042 -0.084094 -0.015376 -0.017453 0.10192 0.13799 -0.063134 0.15839 0.2497 0.076401 -0.17512 0.22638 0.072311 -0.029078 -0.051975 -0.039822 0.046369 -0.018068 0.17686 0.20979 -0.174 0.076954 0.17593 0.20775 0.13956 0.014046 0.0088205 0.11793 -0.09189 -0.18197 0.18324 0.11659 0.086576 -0.10674 -0.21683 0.06601 0.19357 -0.18155 0.43395 0.080294 -0.22949 -0.27073 0.0048488 -0.24583 -0.24235 0.10178 
will 0.12611 0.057816 -0.10903 -0.11898 -0.028869 -0.057019 -0.054963 -0.043827 0.049055 0.014003 0.066791 0.013258 -0.056026 0.12283 -0.094367 0.01073 -0.12901 0.01572 -0.022122 -0.19977 -0.0012788 0.16902 0.057953 0.090481 -0.31474 -0.12755 0.22042 0.15814 -0.058901 0.14331 -0.17079 0.028403 0.0044755 -0.031502 0.040934 0.0042495 0.13938 -0.1136 -0.062511 0.11897 0.38281 0.17151 0.10901 0.029168 0.0028806 -0.17784 -0.19354 -0.03029 -0.21731 0.048027 -0.00020828 0.32653 -0.22021 -0.16311 -0.041523 -0.083805 -0.021296 -0.02115 0.097231 0.12544 -0.062247 0.15192 0.24417 0.077664 -0.16793 0.21862 0.072668 -0.025851 -0.047849 -0.042227 0.046565 -0.015884 0.17294 0.19868 -0.16005 0.06839 0.16921 0.20155 0.13468 0.016696 0.0060029 0.11874 -0.089575 -0.17271 0.17558 0.11118 0.086431 -0.10356 -0.21472 0.059078 0.18471 -0.18264 0.41253 0.076221 -0.22694 -0.26178 0.0062932 -0.24351 -0.23893 0.10272 
#Switzerland 0.13032 0.065297 -0.12522 -0.13248 -0.035023 -0.059114 -0.056849 -0.045844 0.061442 0.005011 0.082121 0.010589 -0.059336 0.13686 -0.096941 0.010003 -0.14736 0.013796 -0.024982 -0.23578 -0.00052688 0.19447 0.069082 0.099832 -0.36025 -0.14449 0.25025 0.1813 -0.074898 0.1586 -0.1955 0.029986 0.0061601 -0.042608 0.044646 0.0070611 0.15948 -0.13777 -0.066507 0.13101 0.44059 0.19928 0.11543 0.036184 -0.0024744 -0.20084 -0.21657 -0.032528 -0.25506 0.054676 -0.0025168 0.37357 -0.25643 -0.1857 -0.046177 -0.10226 -0.026907 -0.020013 0.10909 0.14863 -0.068988 0.16935 0.27423 0.086786 -0.18754 0.25355 0.084995 -0.032031 -0.047478 -0.043717 0.042608 -0.017164 0.19155 0.22474 -0.18756 0.083802 0.19295 0.23129 0.15727 0.016109 0.017211 0.13329 -0.095619 -0.19637 0.19969 0.12426 0.093727 -0.12694 -0.24947 0.065501 0.2174 -0.19906 0.474 0.08877 -0.25646 -0.29398 0.004253 -0.26972 -0.27002 0.1118 
has 0.1293 0.059054 -0.11337 -0.12255 -0.033843 -0.057965 -0.060313 -0.041846 0.053328 0.0091636 0.07403 0.010429 -0.057198 0.1249 -0.095416 0.0053415 -0.13504 0.018601 -0.024011 -0.21682 -0.003268 0.17699 0.058656 0.091356 -0.33393 -0.12999 0.22661 0.16446 -0.065499 0.15337 -0.18297 0.02863 0.0066301 -0.031567 0.044489 0.0068215 0.14899 -0.12414 -0.061923 0.11934 0.40089 0.17945 0.1096 0.031012 -0.0033839 -0.18196 -0.20641 -0.03636 -0.22079 0.052026 0.0012312 0.33657 -0.2359 -0.16638 -0.044169 -0.089032 -0.023009 -0.012609 0.10112 0.13208 -0.062924 0.15839 0.25064 0.07868 -0.1753 0.22902 0.076061 -0.028939 -0.048451 -0.041478 0.042957 -0.016355 0.18279 0.20716 -0.16415 0.078221 0.17304 0.21046 0.14622 0.012646 0.01052 0.12071 -0.093953 -0.18436 0.18631 0.1187 0.083409 -0.10677 -0.22611 0.064223 0.19141 -0.18127 0.42803 0.082967 -0.23429 -0.27131 0.0037964 -0.25346 -0.24392 0.09826 
une 0.10445 0.050468 -0.105 -0.097771 -0.03969 -0.038472 -0.048828 -0.03682 0.057438 0.0059335 0.068537 0.005877 -0.047368 0.10348 -0.082527 0.0092675 -0.13026 0.0058181 -0.017509 -0.20407 -0.0058582 0.16529 0.063418 0.084788 -0.28994 -0.11327 0.21964 0.14742 -0.064301 0.13561 -0.16398 0.032072 0.0124 -0.029546 0.029542 2.0832e-05 0.129 -0.098392 -0.053778 0.10816 0.36244 0.16425 0.085619 0.031543 -0.010051 -0.16584 -0.18132 -0.028346 -0.20614 0.037042 -0.017351 0.29359 -0.21533 -0.14266 -0.032595 -0.078271 -0.027831 -0.011753 0.095251 0.12511 -0.049616 0.12694 0.22772 0.08252 -0.14599 0.19963 0.081372 -0.024254 -0.035717 -0.033395 0.028912 -0.0035975 0.15815 0.17576 -0.15974 0.065382 0.15913 0.18919 0.13257 0.0062703 0.0093739 0.095566 -0.071557 -0.16197 0.15813 0.10841 0.0647 -0.11225 -0.2121 0.047977 0.17928 -0.15785 0.38439 0.052758 -0.21442 -0.24124 0.0050192 -0.22057 -0.21308 0.092813 
first 0.12658 0.057648 -0.11703 -0.12577 -0.033341 -0.055525 -0.057017 -0.041903 0.057927 0.0073797 0.07205 0.011301 -0.055718 0.12263 -0.095808 0.0066656 -0.13346 0.017076 -0.025164 -0.20937 -0.005166 0.17784 0.059875 0.092026 -0.32369 -0.12753 0.22253 0.15979 -0.065684 0.14721 -0.17812 0.028576 0.0054582 -0.03556 0.040768 0.0053048 0.14804 -0.12549 -0.060096 0.1177 0.39614 0.17596 0.10875 0.0348 -0.0023738 -0.18231 -0.2005 -0.033772 -0.2221 0.047692 -0.0022652 0.33345 -0.22866 -0.16643 -0.040078 -0.085009 -0.02595 -0.016617 0.096232 0.13258 -0.065486 0.15199 0.25234 0.078564 -0.17495 0.22555 0.075175 -0.025387 -0.047876 -0.042257 0.041728 -0.015122 0.17376 0.20463 -0.1644 0.075235 0.17074 0.20872 0.14316 0.017069 0.011835 0.12133 -0.09044 -0.1785 0.18355 0.11592 0.088954 -0.10246 -0.22085 0.063707 0.19053 -0.18212 0.42283 0.079595 -0.23017 -0.26912 0.0044462 -0.24592 -0.23991 0.10119 
2018 0.11843 0.059873 -0.11489 -0.11671 -0.032112 -0.048767 -0.056301 -0.043532 0.053534 0.0086888 0.073743 0.013164 -0.055129 0.11994 -0.091973 0.006701 -0.13797 0.013948 -0.022041 -0.20977 -0.002659 0.17524 0.060563 0.097438 -0.32257 -0.12542 0.22605 0.16339 -0.067826 0.14682 -0.17972 0.034092 0.010558 -0.035153 0.042332 0.0067179 0.13919 -0.11415 -0.056888 0.12328 0.39365 0.18185 0.10583 0.033113 -0.0022821 -0.17901 -0.20294 -0.028369 -0.22235 0.046924 -0.0043599 0.33081 -0.22841 -0.16313 -0.041552 -0.08838 -0.024826 -0.01428 0.09925 0.13526 -0.061337 0.15415 0.24846 0.076053 -0.16179 0.2235 0.07632 -0.026885 -0.043478 -0.044213 0.038563 -0.008931 0.17677 0.20607 -0.16672 0.073666 0.16838 0.20576 0.14107 0.016347 0.013798 0.11478 -0.091036 -0.17775 0.17685 0.11691 0.081334 -0.11396 -0.22826 0.059231 0.18853 -0.17965 0.42063 0.073856 -0.2336 -0.26313 0.0056881 -0.24233 -0.23899 0.10228 
@MartinVetterli 0.11557 0.056819 -0.10923 -0.11384 -0.031377 -0.048457 -0.051808 -0.039716 0.05012 0.0083469 0.068388 0.011008 -0.05271 0.11364 -0.088996 0.006703 -0.12674 0.014266 -0.024663 -0.19968 -0.0020747 0.16656 0.057021 0.087124 -0.30768 -0.12004 0.21488 0.1531 -0.060916 0.14097 -0.16919 0.027799 0.0066927 -0.035305 0.039344 0.002928 0.13667 -0.11419 -0.057685 0.11259 0.37578 0.16743 0.099919 0.02909 -0.0023036 -0.17047 -0.19014 -0.029956 -0.2136 0.043448 -0.0048668 0.31531 -0.22035 -0.15459 -0.038786 -0.082591 -0.024987 -0.017007 0.094684 0.12656 -0.05936 0.1436 0.23667 0.075833 -0.16017 0.21329 0.071952 -0.026225 -0.043232 -0.036851 0.03751 -0.012432 0.16781 0.19266 -0.1583 0.068675 0.16552 0.19767 0.1365 0.010967 0.010407 0.11116 -0.084251 -0.16722 0.1698 0.11093 0.079275 -0.10352 -0.21095 0.056094 0.18336 -0.17216 0.40058 0.070688 -0.21966 -0.25181 0.0053925 -0.23118 -0.22833 0.096015 
all 0.1275 0.056239 -0.11505 -0.12857 -0.03384 -0.059345 -0.053101 -0.044073 0.052907 0.0099107 0.070098 0.010743 -0.060697 0.13006 -0.096242 0.010057 -0.13229 0.018628 -0.026504 -0.21163 -0.002711 0.1769 0.061442 0.095243 -0.33173 -0.13514 0.23066 0.1669 -0.065464 0.15434 -0.17569 0.030204 0.011522 -0.039554 0.040625 0.0031842 0.14878 -0.12482 -0.06395 0.12022 0.4019 0.17844 0.1149 0.031007 -0.0015241 -0.18762 -0.20104 -0.031513 -0.23112 0.050535 0.00081519 0.34275 -0.23499 -0.17081 -0.04683 -0.090982 -0.026079 -0.020014 0.10073 0.13183 -0.062807 0.15826 0.2531 0.075719 -0.17769 0.23092 0.078871 -0.028369 -0.046358 -0.043265 0.05045 -0.012569 0.18306 0.21143 -0.16853 0.073647 0.17835 0.21148 0.14099 0.019633 0.012352 0.12136 -0.097519 -0.18281 0.18462 0.11374 0.092736 -0.10846 -0.22493 0.066472 0.19359 -0.19123 0.42587 0.08628 -0.23766 -0.2718 0.0061018 -0.25084 -0.24771 0.10297 
par 0.10036 0.052492 -0.10744 -0.10284 -0.038207 -0.042723 -0.051113 -0.036838 0.055755 0.0052699 0.070259 0.0094825 -0.048655 0.11019 -0.079782 0.013684 -0.13067 0.0081031 -0.022705 -0.19713 -0.001354 0.16372 0.057057 0.082001 -0.28988 -0.11025 0.20954 0.14587 -0.058269 0.12891 -0.16429 0.02497 0.011817 -0.033206 0.033596 -0.0017036 0.12341 -0.10232 -0.053632 0.11059 0.36078 0.16419 0.083438 0.033335 -0.0061493 -0.16805 -0.18095 -0.023779 -0.20514 0.041741 -0.012132 0.29984 -0.21948 -0.14469 -0.037445 -0.075411 -0.026456 -0.013558 0.095368 0.12189 -0.052456 0.13203 0.22804 0.075524 -0.14115 0.204 0.07849 -0.026865 -0.038748 -0.035141 0.031355 -0.0059798 0.15928 0.17551 -0.16001 0.069536 0.15424 0.18913 0.13346 0.0075971 0.016965 0.099337 -0.070257 -0.16066 0.15647 0.1051 0.072003 -0.10235 -0.20955 0.051556 0.17832 -0.15785 0.38395 0.064277 -0.21238 -0.23857 0.0053193 -0.21444 -0.2119 0.089952 
students 0.12657 0.058722 -0.11651 -0.12161 -0.034115 -0.055035 -0.054439 -0.041968 0.055277 0.0085552 0.073288 0.012741 -0.058851 0.1249 -0.099294 0.0081493 -0.13608 0.016727 -0.02613 -0.21331 -0.0034949 0.1791 0.060617 0.094161 -0.33078 -0.13116 0.22736 0.1665 -0.066222 0.15161 -0.17888 0.030102 0.0074594 -0.03752 0.039739 0.0043296 0.1471 -0.12002 -0.06337 0.12212 0.40014 0.18042 0.10544 0.034017 -6.8082e-05 -0.18397 -0.20209 -0.035152 -0.22914 0.049726 0.00028141 0.33812 -0.23443 -0.16971 -0.042376 -0.086355 -0.023422 -0.019207 0.10147 0.13223 -0.06407 0.15626 0.25233 0.081001 -0.17421 0.23122 0.073375 -0.025024 -0.04867 -0.040193 0.043282 -0.013805 0.17925 0.20789 -0.16654 0.07113 0.17569 0.21285 0.14203 0.015508 0.0076355 0.11911 -0.093256 -0.17978 0.1877 0.11774 0.088983 -0.10797 -0.22689 0.063495 0.19597 -0.18641 0.4314 0.074811 -0.23264 -0.27015 0.003436 -0.24959 -0.24661 0.10146 
Les 0.10026 0.050244 -0.1045 -0.088891 -0.041195 -0.037214 -0.0536 -0.037606 0.055777 0.0038143 0.071817 0.0054369 -0.04624 0.10514 -0.080648 0.015622 -0.11891 0.0090979 -0.020537 -0.19215 -0.0018041 0.1559 0.056962 0.073602 -0.27061 -0.1076 0.20718 0.13852 -0.058722 0.12559 -0.16263 0.024369 0.0046437 -0.028828 0.031442 0.0009422 0.12481 -0.093361 -0.054579 0.10366 0.34899 0.15396 0.082846 0.030774 -0.008972 -0.15971 -0.17356 -0.022228 -0.20129 0.033517 -0.024281 0.28018 -0.21127 -0.13376 -0.038444 -0.073964 -0.028218 -0.0052057 0.093237 0.12189 -0.051259 0.11759 0.22159 0.081866 -0.13564 0.19052 0.083952 -0.027815 -0.032682 -0.028672 0.02838 -0.001528 0.15601 0.16624 -0.15698 0.064323 0.15157 0.19034 0.12737 -0.0050489 0.0098476 0.086891 -0.06867 -0.15061 0.15069 0.097806 0.064989 -0.10371 -0.20186 0.044969 0.17594 -0.14772 0.36813 0.049123 -0.20465 -0.22505 0.0056196 -0.21123 -0.20862 0.085752 
this 0.1332 0.05972 -0.11446 -0.12854 -0.029854 -0.056957 -0.056172 -0.039006 0.052405 0.012225 0.067145 0.012227 -0.057371 0.12366 -0.098314 0.0076124 -0.13244 0.015187 -0.026233 -0.20662 -0.0042059 0.17983 0.058454 0.093987 -0.33147 -0.13169 0.22496 0.16998 -0.068416 0.15197 -0.17725 0.029159 0.0051287 -0.035173 0.043733 0.0029042 0.14972 -0.12144 -0.058905 0.12148 0.39871 0.18172 0.11364 0.026164 -0.0013079 -0.17932 -0.20254 -0.034023 -0.22808 0.051498 0.0023164 0.33936 -0.23177 -0.16953 -0.041094 -0.088524 -0.01846 -0.021337 0.099413 0.13211 -0.061815 0.15811 0.25228 0.072065 -0.18155 0.23057 0.066684 -0.024758 -0.050864 -0.041989 0.048775 -0.015877 0.1766 0.21221 -0.16376 0.076686 0.18009 0.20988 0.1478 0.017797 0.012202 0.12322 -0.09715 -0.17398 0.18628 0.1184 0.089159 -0.10805 -0.22353 0.065728 0.19225 -0.18744 0.42964 0.086207 -0.23277 -0.27076 0.0053916 -0.24953 -0.24565 0.10187 
its 0.12148 0.056519 -0.11506 -0.12067 -0.031334 -0.050259 -0.054719 -0.042325 0.050854 0.003108 0.071392 0.015973 -0.056861 0.12357 -0.097683 0.010349 -0.13392 0.016452 -0.025877 -0.20369 0.0011618 0.17144 0.052707 0.090405 -0.32403 -0.12696 0.21783 0.15962 -0.063606 0.15149 -0.17245 0.030462 0.0070906 -0.032915 0.041357 -0.00092116 0.14721 -0.11799 -0.05489 0.12129 0.38629 0.17366 0.10391 0.029784 -0.0041209 -0.17723 -0.19815 -0.034445 -0.22269 0.046344 0.0020134 0.32565 -0.22634 -0.16414 -0.040291 -0.080794 -0.021952 -0.017715 0.098209 0.13043 -0.059883 0.15619 0.24465 0.078918 -0.16866 0.22175 0.074468 -0.025534 -0.050363 -0.037629 0.03936 -0.016293 0.17926 0.20282 -0.16313 0.073301 0.16965 0.20445 0.14016 0.010119 0.0042967 0.11685 -0.092238 -0.17542 0.17893 0.11823 0.085636 -0.10257 -0.22002 0.053887 0.19006 -0.17908 0.41807 0.077127 -0.22376 -0.26454 0.0030543 -0.24125 -0.24291 0.10156 
now 0.13094 0.055355 -0.11351 -0.12875 -0.026453 -0.05674 -0.055924 -0.044464 0.051061 0.0048787 0.071003 0.015294 -0.058555 0.1232 -0.099743 0.0075174 -0.13156 0.019228 -0.027072 -0.20591 -0.0052254 0.17855 0.053189 0.089489 -0.32275 -0.13072 0.22462 0.16142 -0.058708 0.14749 -0.17344 0.021994 0.0042618 -0.033795 0.040686 0.0089605 0.14666 -0.11816 -0.064596 0.12197 0.39702 0.17901 0.10569 0.030922 -0.0012063 -0.18051 -0.20371 -0.032723 -0.22093 0.046778 8.6464e-05 0.33155 -0.22542 -0.16658 -0.044463 -0.083089 -0.022878 -0.021051 0.10137 0.12873 -0.061253 0.1527 0.25262 0.074746 -0.17809 0.22562 0.07083 -0.024928 -0.045609 -0.043937 0.040351 -0.018916 0.17703 0.20354 -0.16287 0.072184 0.17224 0.20498 0.14239 0.013814 0.0048323 0.1196 -0.093719 -0.17887 0.18152 0.11542 0.082435 -0.10404 -0.22034 0.065915 0.19782 -0.18571 0.41612 0.080028 -0.23046 -0.26891 0.0076023 -0.24746 -0.24615 0.098387 
2017 0.11585 0.056042 -0.10932 -0.10913 -0.033941 -0.047966 -0.051962 -0.039249 0.049936 0.0045501 0.072059 0.0084642 -0.052935 0.11489 -0.088372 0.0087643 -0.12921 0.011831 -0.023769 -0.20016 0.002058 0.16752 0.057637 0.089163 -0.30522 -0.11669 0.21225 0.15363 -0.063347 0.13939 -0.17192 0.028032 0.0070186 -0.033942 0.041896 0.0088736 0.13703 -0.10834 -0.060753 0.11652 0.37521 0.16434 0.099605 0.032237 -0.0025838 -0.16996 -0.19078 -0.026977 -0.21314 0.043641 -0.0009094 0.31029 -0.21636 -0.15397 -0.036556 -0.080559 -0.023677 -0.011798 0.093432 0.12692 -0.058756 0.14548 0.2363 0.076659 -0.15628 0.21424 0.074871 -0.023998 -0.041979 -0.04102 0.036588 -0.010828 0.16648 0.18946 -0.15782 0.068347 0.1614 0.19727 0.13197 0.015188 0.010133 0.10887 -0.084204 -0.16961 0.16878 0.11359 0.080197 -0.10737 -0.21302 0.059515 0.18111 -0.17422 0.4032 0.067199 -0.22068 -0.25319 0.0044818 -0.23043 -0.22258 0.096648 
how 0.13021 0.056506 -0.11455 -0.12131 -0.025148 -0.05535 -0.054121 -0.04051 0.049597 0.0060526 0.067611 0.012764 -0.058593 0.12189 -0.097538 0.0078976 -0.12551 0.020411 -0.02762 -0.2047 0.00087755 0.17403 0.054484 0.092898 -0.32617 -0.13224 0.2213 0.15864 -0.065279 0.15334 -0.17716 0.021292 0.0034974 -0.03644 0.040328 0.004038 0.14508 -0.12058 -0.058615 0.11449 0.39445 0.17673 0.10312 0.025028 -0.0028267 -0.18268 -0.20359 -0.034275 -0.22192 0.048515 -0.0031125 0.33298 -0.22411 -0.16903 -0.043429 -0.082442 -0.022567 -0.018346 0.097388 0.13193 -0.060795 0.15478 0.25265 0.069678 -0.17728 0.22696 0.072337 -0.022732 -0.048929 -0.040211 0.047842 -0.01761 0.17444 0.20165 -0.16292 0.077302 0.17316 0.20771 0.13977 0.017778 0.0090145 0.12282 -0.098413 -0.17447 0.18052 0.11373 0.083558 -0.10318 -0.21483 0.06471 0.19232 -0.17883 0.42218 0.07968 -0.23089 -0.26716 0.0088412 -0.24768 -0.24285 0.09582 
@ETH_en 0.12304 0.062197 -0.11552 -0.12395 -0.030767 -0.055677 -0.051276 -0.043118 0.047819 0.0059825 0.072947 0.011547 -0.056675 0.1259 -0.095672 0.011149 -0.13421 0.017537 -0.025924 -0.20675 -0.0010506 0.17323 0.060012 0.092101 -0.32467 -0.12604 0.22568 0.16537 -0.062297 0.14979 -0.17457 0.027927 0.0030176 -0.036015 0.038703 0.0062895 0.1487 -0.12238 -0.062142 0.11637 0.39326 0.17768 0.1066 0.029936 -0.0016703 -0.17964 -0.19748 -0.033851 -0.22661 0.048498 -0.0021434 0.33464 -0.22401 -0.16823 -0.04179 -0.086741 -0.024838 -0.019846 0.10118 0.12897 -0.064392 0.15785 0.24909 0.077599 -0.16962 0.22332 0.073809 -0.029293 -0.047382 -0.040748 0.039195 -0.017081 0.17258 0.20466 -0.16162 0.076133 0.17063 0.20725 0.14129 0.015675 0.0094536 0.12035 -0.090113 -0.17553 0.18128 0.11398 0.085371 -0.10761 -0.21996 0.0611 0.19556 -0.18538 0.42364 0.079711 -0.22746 -0.26738 0.0041463 -0.24531 -0.24398 0.10111 
@epfl_en 0.11615 0.055694 -0.10906 -0.1156 -0.030232 -0.053 -0.051637 -0.041803 0.048893 0.0047354 0.066575 0.012037 -0.05279 0.11753 -0.0881 0.008286 -0.12499 0.013528 -0.023018 -0.19867 -0.00093376 0.16818 0.058775 0.08766 -0.30631 -0.12093 0.21559 0.15735 -0.063142 0.14021 -0.16808 0.026346 0.0063205 -0.034043 0.040247 0.0047912 0.13883 -0.11282 -0.058286 0.11109 0.37561 0.1667 0.099508 0.033131 -0.00026466 -0.17093 -0.18945 -0.032006 -0.21456 0.046168 -0.003357 0.31622 -0.21771 -0.15871 -0.042557 -0.081466 -0.023358 -0.018106 0.091532 0.12728 -0.058248 0.1443 0.23856 0.073653 -0.1627 0.21279 0.06926 -0.025192 -0.045435 -0.039943 0.038325 -0.014786 0.16718 0.19162 -0.15579 0.068482 0.16386 0.19796 0.1356 0.014709 0.0083166 0.1141 -0.085834 -0.1663 0.17139 0.10997 0.080626 -0.10241 -0.21018 0.057914 0.1856 -0.17345 0.40429 0.073856 -0.21783 -0.25516 0.0059877 -0.23167 -0.23105 0.095985 
their 0.133 0.057673 -0.11337 -0.12468 -0.02895 -0.056817 -0.054487 -0.044038 0.049777 0.0082849 0.06714 0.012666 -0.060577 0.12609 -0.095694 0.0076758 -0.13114 0.017543 -0.025164 -0.20515 -0.001623 0.17272 0.05545 0.093106 -0.32734 -0.13182 0.22351 0.1661 -0.063562 0.15548 -0.17722 0.029699 0.0041823 -0.038476 0.042364 0.0044848 0.14374 -0.12067 -0.058703 0.11773 0.39552 0.17796 0.10855 0.031176 0.0024743 -0.17931 -0.2021 -0.038296 -0.22439 0.049524 0.0045202 0.33571 -0.22817 -0.16583 -0.042531 -0.085855 -0.019639 -0.020646 0.094225 0.13264 -0.061447 0.1565 0.25164 0.076859 -0.18002 0.22722 0.067141 -0.022733 -0.048925 -0.044008 0.043773 -0.019389 0.17965 0.20769 -0.16267 0.068346 0.17146 0.20827 0.14001 0.016235 0.011617 0.1212 -0.09642 -0.17779 0.18256 0.11723 0.087452 -0.10495 -0.21945 0.062113 0.19403 -0.19014 0.42354 0.08311 -0.22947 -0.26742 0.0063186 -0.24498 -0.2395 0.10075 
as 0.12968 0.057373 -0.12429 -0.13326 -0.040428 -0.060981 -0.068376 -0.038726 0.057341 -0.00064438 0.077916 0.014452 -0.06156 0.11958 -0.0994 0.0092096 -0.13802 0.016815 -0.024699 -0.21357 -0.0014903 0.18799 0.057183 0.092147 -0.33116 -0.13269 0.23319 0.17109 -0.065293 0.1523 -0.18027 0.023546 0.0066313 -0.034407 0.045798 0.008816 0.15297 -0.12781 -0.058927 0.12501 0.40758 0.17902 0.10781 0.033836 -0.0072563 -0.18312 -0.2108 -0.031881 -0.2262 0.054385 -0.0079137 0.34311 -0.24272 -0.17095 -0.049742 -0.082436 -0.028187 -0.019061 0.1029 0.13261 -0.062727 0.15981 0.26145 0.076376 -0.17712 0.23235 0.076723 -0.027382 -0.056986 -0.037129 0.039715 -0.020659 0.18328 0.20856 -0.1657 0.081574 0.17444 0.21222 0.14851 0.015303 0.0066976 0.12616 -0.095418 -0.1875 0.18927 0.11892 0.083369 -0.10677 -0.23261 0.062193 0.19229 -0.18803 0.43937 0.072654 -0.23729 -0.27194 0.014147 -0.25736 -0.25075 0.10449 
dans 0.1041 0.048553 -0.10315 -0.09528 -0.038435 -0.042829 -0.05252 -0.037253 0.047529 0.0039814 0.064167 0.0055336 -0.048171 0.098371 -0.077592 0.011731 -0.12165 0.0074409 -0.016499 -0.18974 -0.0046549 0.15674 0.055744 0.080605 -0.27535 -0.10915 0.20152 0.13988 -0.057087 0.12706 -0.15708 0.023288 0.0097522 -0.03133 0.029791 0.0033458 0.12453 -0.097463 -0.056867 0.10115 0.34495 0.15335 0.084928 0.029102 -0.0042467 -0.15905 -0.17507 -0.024878 -0.19596 0.038901 -0.0089819 0.28463 -0.20731 -0.14044 -0.035712 -0.072371 -0.025796 -0.012222 0.090331 0.12043 -0.053305 0.12584 0.21732 0.075497 -0.14451 0.1899 0.072472 -0.0255 -0.0372 -0.029504 0.029113 -0.0078913 0.15334 0.17257 -0.14933 0.06114 0.14838 0.17888 0.12466 0.0023831 0.01004 0.096089 -0.072484 -0.15535 0.15046 0.10258 0.070508 -0.099227 -0.20182 0.045574 0.1708 -0.15343 0.37091 0.05483 -0.20187 -0.22855 0.0093686 -0.21499 -0.20636 0.086565 
your 0.12078 0.055536 -0.11104 -0.11596 -0.034165 -0.050385 -0.054915 -0.038579 0.052547 0.010598 0.072702 0.011974 -0.054413 0.11762 -0.092575 0.0088084 -0.13048 0.013902 -0.0189 -0.20132 -0.0031738 0.17221 0.060533 0.088877 -0.31765 -0.11882 0.22085 0.15495 -0.064076 0.1435 -0.17751 0.032333 0.0093983 -0.035616 0.0386 0.0059774 0.14272 -0.11289 -0.060496 0.11286 0.38644 0.17537 0.10344 0.031118 -0.002149 -0.17694 -0.19461 -0.029774 -0.22054 0.048291 -0.0076617 0.3212 -0.22383 -0.16127 -0.041844 -0.084306 -0.02202 -0.017031 0.10126 0.13126 -0.056783 0.14411 0.24633 0.078071 -0.16467 0.21954 0.075846 -0.026178 -0.040363 -0.039076 0.043147 -0.014314 0.17327 0.19636 -0.16518 0.064801 0.16823 0.2044 0.14067 0.0095307 0.0096281 0.11529 -0.085027 -0.17386 0.17598 0.11186 0.07794 -0.1053 -0.21544 0.059155 0.18837 -0.17431 0.40843 0.075214 -0.22698 -0.26058 0.0028099 -0.23743 -0.23041 0.097069 
@unil 0.11611 0.054459 -0.11161 -0.11061 -0.028776 -0.048464 -0.048441 -0.040396 0.048925 0.0048909 0.068591 0.011814 -0.050404 0.11637 -0.087371 0.011886 -0.12304 0.011927 -0.024304 -0.20034 -0.003999 0.16436 0.056399 0.085396 -0.30065 -0.11759 0.21185 0.14958 -0.060469 0.14103 -0.16861 0.026443 0.0067159 -0.031573 0.038686 0.0040118 0.13486 -0.11031 -0.056586 0.11008 0.36944 0.16278 0.098501 0.029392 -0.0019087 -0.17306 -0.1845 -0.028742 -0.21291 0.044994 -0.0045051 0.30796 -0.21628 -0.1553 -0.039241 -0.081667 -0.024091 -0.015109 0.094905 0.12644 -0.056823 0.14296 0.23253 0.073339 -0.15977 0.20812 0.076027 -0.026857 -0.041523 -0.036576 0.035573 -0.015274 0.16348 0.18929 -0.15749 0.066981 0.16056 0.19628 0.12994 0.011583 0.0082838 0.11007 -0.081505 -0.16673 0.16761 0.10469 0.080461 -0.10117 -0.21128 0.054613 0.1821 -0.16867 0.39459 0.069921 -0.21268 -0.24883 0.0028819 -0.22716 -0.22352 0.094472 
we 0.12996 0.060967 -0.11934 -0.12818 -0.033969 -0.056572 -0.058112 -0.035847 0.050898 0.011426 0.072993 0.015968 -0.05942 0.12889 -0.089139 -7.5006e-05 -0.13413 0.018293 -0.026367 -0.20484 -0.0056223 0.17752 0.056027 0.096197 -0.33767 -0.13813 0.22745 0.1669 -0.067434 0.15528 -0.18047 0.03086 0.0090425 -0.035585 0.04204 0.0072545 0.14624 -0.12437 -0.056183 0.12621 0.4068 0.17955 0.11461 0.027547 0.0025369 -0.18069 -0.20498 -0.03503 -0.22237 0.052855 0.0022115 0.3406 -0.23117 -0.17448 -0.04646 -0.095024 -0.021066 -0.020949 0.098167 0.13161 -0.062426 0.15734 0.24965 0.065853 -0.18514 0.23078 0.067351 -0.023242 -0.048283 -0.038419 0.052776 -0.013409 0.18246 0.21013 -0.16644 0.071962 0.17061 0.20757 0.14378 0.017793 0.0073712 0.12592 -0.10106 -0.17524 0.18717 0.11897 0.089846 -0.11273 -0.22091 0.070258 0.19287 -0.18405 0.4263 0.082883 -0.23671 -0.27472 0.0031372 -0.24359 -0.24599 0.098574 
vous 0.10805 0.054438 -0.11487 -0.10195 -0.042475 -0.039744 -0.053066 -0.038606 0.05455 0.0066088 0.0749 0.0093413 -0.047263 0.10507 -0.088772 0.011182 -0.12976 0.01308 -0.020028 -0.20536 -0.003126 0.16989 0.060503 0.082989 -0.29632 -0.11225 0.22209 0.14499 -0.060669 0.13883 -0.17133 0.029889 0.01053 -0.032307 0.036373 0.0036259 0.13184 -0.10999 -0.059916 0.11128 0.37203 0.16544 0.086861 0.034081 -0.014645 -0.17008 -0.18995 -0.025536 -0.21315 0.040885 -0.013683 0.3068 -0.22384 -0.1489 -0.039649 -0.078719 -0.026887 -0.0098926 0.10055 0.13143 -0.055877 0.13439 0.23196 0.08281 -0.14656 0.20305 0.084968 -0.028555 -0.039063 -0.034565 0.028902 -0.0057775 0.16445 0.18071 -0.16496 0.069079 0.16077 0.19583 0.13597 0.005559 0.01265 0.099025 -0.072669 -0.16562 0.16618 0.1104 0.078104 -0.10959 -0.21892 0.049625 0.18323 -0.16311 0.39587 0.06228 -0.21448 -0.24821 0.0053352 -0.22828 -0.22143 0.09134 
work 0.12434 0.065197 -0.11752 -0.12521 -0.028353 -0.056088 -0.054832 -0.042194 0.054168 0.0082175 0.070595 0.011106 -0.053421 0.1315 -0.091626 0.0056117 -0.13155 0.014451 -0.026896 -0.21408 -0.0025834 0.18535 0.058884 0.090897 -0.33669 -0.13512 0.22918 0.16889 -0.072536 0.15213 -0.18344 0.026072 0.010342 -0.039946 0.043111 0.0052576 0.14776 -0.12486 -0.057896 0.12061 0.4045 0.17877 0.11072 0.034974 -0.00097663 -0.18731 -0.20303 -0.036953 -0.23184 0.056242 0.00052725 0.34924 -0.23924 -0.17442 -0.044799 -0.092045 -0.021576 -0.021036 0.10017 0.13429 -0.061186 0.16344 0.25432 0.070662 -0.17419 0.23573 0.074973 -0.031613 -0.048469 -0.04196 0.04561 -0.01878 0.18121 0.21219 -0.17413 0.075198 0.17862 0.21294 0.14887 0.022538 0.015973 0.12424 -0.093772 -0.17964 0.18773 0.11574 0.088746 -0.11353 -0.22696 0.060808 0.19669 -0.18681 0.43381 0.085323 -0.23673 -0.27059 0.0061645 -0.24655 -0.25164 0.10105 
#innovation 0.11458 0.054299 -0.1067 -0.11411 -0.028035 -0.047372 -0.051396 -0.040756 0.050179 0.010413 0.068472 0.010698 -0.051896 0.11563 -0.08746 0.0079435 -0.12725 0.012816 -0.024352 -0.19783 -0.00022696 0.16668 0.05825 0.084932 -0.30724 -0.12085 0.21372 0.1572 -0.062735 0.14186 -0.16636 0.028838 0.0065806 -0.035759 0.038064 0.0057737 0.13617 -0.11228 -0.056498 0.11314 0.37285 0.16936 0.10121 0.027456 -0.00038564 -0.17139 -0.18844 -0.030343 -0.21332 0.047166 -0.0026377 0.3133 -0.21557 -0.15384 -0.040548 -0.083014 -0.022215 -0.015604 0.093942 0.12365 -0.058788 0.14664 0.23689 0.069904 -0.16254 0.21369 0.067897 -0.025325 -0.042865 -0.038705 0.040619 -0.011313 0.16789 0.19633 -0.15706 0.068467 0.16499 0.1955 0.13584 0.014333 0.010137 0.11504 -0.085852 -0.16863 0.17114 0.10924 0.081282 -0.10462 -0.21066 0.056711 0.18483 -0.17284 0.40278 0.073639 -0.21989 -0.25419 0.0048727 -0.23235 -0.22903 0.093823 
avec 0.11505 0.05139 -0.11086 -0.1108 -0.036632 -0.043638 -0.054809 -0.038082 0.055999 0.0049338 0.071736 0.0069588 -0.053465 0.11271 -0.090663 0.014975 -0.13361 0.0097477 -0.022723 -0.21177 -0.0016817 0.17082 0.056865 0.08972 -0.30392 -0.11747 0.22171 0.15631 -0.066658 0.14119 -0.17382 0.029016 0.0073908 -0.032363 0.034462 0.0059934 0.13669 -0.10693 -0.060561 0.11595 0.38116 0.17195 0.093118 0.036808 -0.010088 -0.17113 -0.18985 -0.027253 -0.21619 0.040564 -0.010745 0.31146 -0.22347 -0.15009 -0.037545 -0.081509 -0.031873 -0.014786 0.10038 0.12557 -0.057773 0.13568 0.23554 0.080572 -0.1538 0.21062 0.079022 -0.022555 -0.043348 -0.033768 0.034196 -0.0082698 0.16835 0.1852 -0.16769 0.067843 0.16426 0.20108 0.13794 0.0063613 0.011972 0.1026 -0.078262 -0.1636 0.17353 0.11059 0.07569 -0.11332 -0.21799 0.049844 0.18457 -0.16753 0.40444 0.061884 -0.21862 -0.247 0.0064756 -0.22966 -0.23196 0.097919 
Lausanne 0.12811 0.061487 -0.12422 -0.12586 -0.036559 -0.051268 -0.05966 -0.045337 0.058676 0.0095767 0.078675 0.010681 -0.056018 0.127 -0.10236 0.011356 -0.15021 0.0076057 -0.023449 -0.23115 -0.0028248 0.18885 0.067647 0.10077 -0.34505 -0.13297 0.24835 0.17408 -0.066843 0.16031 -0.19302 0.03396 0.0078205 -0.040116 0.041089 0.0056932 0.15124 -0.12582 -0.064864 0.1333 0.42762 0.18958 0.10894 0.034535 -0.0062758 -0.19523 -0.21674 -0.037008 -0.24147 0.048804 -0.0092089 0.35622 -0.25162 -0.17323 -0.046553 -0.094033 -0.026566 -0.017341 0.11029 0.14214 -0.060023 0.16037 0.27089 0.089742 -0.17461 0.24098 0.090986 -0.027616 -0.04668 -0.040391 0.039406 -0.013187 0.18613 0.21566 -0.18264 0.083568 0.18888 0.22097 0.15419 0.010535 0.01302 0.12299 -0.094631 -0.19155 0.19242 0.12707 0.087269 -0.12548 -0.24569 0.061572 0.21112 -0.18952 0.45874 0.077266 -0.25074 -0.28597 0.0038445 -0.26406 -0.25654 0.10676 
talk 0.12093 0.057365 -0.10889 -0.12123 -0.025033 -0.052195 -0.053418 -0.038896 0.049568 0.0075631 0.064157 0.010183 -0.050209 0.11964 -0.092034 0.0055286 -0.12956 0.014531 -0.023554 -0.2028 -0.0055925 0.16781 0.057918 0.090469 -0.31682 -0.12241 0.21553 0.15385 -0.068635 0.14509 -0.17146 0.02931 0.003994 -0.033617 0.0413 0.0034112 0.13834 -0.11591 -0.058064 0.11578 0.38061 0.17059 0.1076 0.02775 -0.0012162 -0.17566 -0.19536 -0.031788 -0.21905 0.04602 0.00014923 0.3228 -0.22268 -0.16043 -0.040394 -0.086007 -0.023417 -0.01935 0.092417 0.12845 -0.061005 0.14987 0.24312 0.077117 -0.16567 0.21772 0.071014 -0.026199 -0.044739 -0.04207 0.040016 -0.012797 0.1704 0.19822 -0.15736 0.070768 0.16657 0.20195 0.13841 0.01517 0.012371 0.1173 -0.090432 -0.17372 0.17649 0.11243 0.090416 -0.1011 -0.21482 0.058169 0.18609 -0.17422 0.40818 0.075253 -0.22148 -0.25616 0.0034696 -0.23911 -0.23258 0.097663 
next 0.11675 0.056999 -0.10639 -0.11787 -0.028978 -0.054251 -0.052968 -0.041714 0.050452 0.0079852 0.068561 0.0097957 -0.050965 0.11906 -0.088093 0.0042393 -0.12591 0.010492 -0.023114 -0.19966 -0.0049049 0.16795 0.05766 0.088581 -0.30892 -0.12054 0.21234 0.1528 -0.059926 0.13906 -0.16918 0.02882 0.0070703 -0.031642 0.040019 0.0054018 0.13895 -0.11001 -0.060116 0.11552 0.37471 0.16801 0.09968 0.026743 -0.0035936 -0.17081 -0.18625 -0.031864 -0.21405 0.044188 -0.00067884 0.31321 -0.21744 -0.15852 -0.039857 -0.08073 -0.020616 -0.019208 0.088535 0.12332 -0.059434 0.14221 0.2378 0.074962 -0.16112 0.2117 0.069852 -0.027305 -0.043991 -0.040294 0.039806 -0.012553 0.1654 0.19732 -0.15561 0.068361 0.16324 0.19971 0.13441 0.011881 0.011361 0.11377 -0.087367 -0.16398 0.16894 0.11304 0.077314 -0.10331 -0.21424 0.05773 0.18204 -0.17201 0.39719 0.072623 -0.21996 -0.25061 0.0065521 -0.23092 -0.22701 0.091105 
Avec 0.085508 0.039475 -0.084524 -0.081138 -0.030783 -0.033563 -0.041563 -0.027842 0.044901 0.0037028 0.053506 0.0066259 -0.039588 0.084108 -0.067611 0.011531 -0.099737 0.0082596 -0.017681 -0.15526 -0.0020876 0.12433 0.045589 0.065792 -0.23309 -0.084195 0.16884 0.11602 -0.048113 0.10832 -0.12929 0.019944 0.0069585 -0.025891 0.028296 0.0050566 0.10365 -0.081741 -0.044954 0.088114 0.28886 0.12837 0.0713 0.02662 -0.008531 -0.13259 -0.14534 -0.0248 -0.16474 0.028784 -0.0058696 0.23444 -0.1716 -0.11522 -0.029141 -0.061557 -0.021965 -0.0089075 0.075135 0.099676 -0.044655 0.10513 0.18311 0.063215 -0.1162 0.15824 0.060227 -0.016812 -0.030225 -0.025843 0.02647 -0.0042064 0.12579 0.14161 -0.1225 0.051988 0.12431 0.15372 0.10161 0.0020555 0.0088668 0.078988 -0.058186 -0.12654 0.12955 0.085902 0.058449 -0.082965 -0.16645 0.040659 0.14114 -0.13034 0.30638 0.049868 -0.16286 -0.18921 0.0029878 -0.17648 -0.17299 0.070632 
my 0.13023 0.056263 -0.12724 -0.11333 -0.02609 -0.062115 -0.049202 -0.047263 0.052638 0.0035682 0.067731 0.01451 -0.059727 0.12548 -0.10778 0.0081158 -0.12673 0.028616 -0.036387 -0.21374 -0.0099661 0.17181 0.057202 0.095971 -0.3191 -0.12236 0.22502 0.15456 -0.062692 0.15588 -0.17186 0.025317 0.0036645 -0.026667 0.034485 -0.00068675 0.15322 -0.11997 -0.071697 0.10517 0.38491 0.16555 0.10677 0.028126 -0.00092168 -0.18577 -0.19912 -0.027122 -0.22357 0.04121 -0.0074316 0.31791 -0.22345 -0.16357 -0.041822 -0.07549 -0.035166 -0.03077 0.096463 0.12877 -0.072715 0.14563 0.2509 0.084271 -0.16681 0.21794 0.077228 -0.028614 -0.045271 -0.03921 0.033869 -0.025971 0.16666 0.19665 -0.1602 0.072448 0.16501 0.2177 0.13144 0.0054117 -0.0020238 0.10866 -0.087067 -0.17033 0.18383 0.11051 0.10063 -0.096191 -0.21729 0.05871 0.19592 -0.18413 0.40882 0.070142 -0.22567 -0.2615 0.012384 -0.25191 -0.24213 0.09931 
#epflcampus 0.10484 0.048602 -0.10059 -0.10067 -0.02982 -0.043275 -0.048691 -0.034671 0.047038 0.0064642 0.064353 0.0096019 -0.047477 0.10423 -0.081502 0.0094328 -0.11692 0.011009 -0.019837 -0.18193 -0.0012076 0.15319 0.051341 0.078796 -0.27497 -0.11075 0.197 0.14117 -0.056038 0.12784 -0.15285 0.026521 0.0051738 -0.030041 0.035492 0.0058889 0.12464 -0.10144 -0.053736 0.10301 0.34346 0.15316 0.089138 0.027614 -0.0024229 -0.15671 -0.17007 -0.029022 -0.19435 0.040606 -0.0041343 0.28486 -0.20017 -0.14138 -0.036847 -0.07716 -0.02253 -0.011981 0.085866 0.11809 -0.053069 0.12917 0.21789 0.069958 -0.14496 0.19314 0.066791 -0.023758 -0.038408 -0.03405 0.033314 -0.011881 0.15152 0.17633 -0.14668 0.065167 0.15015 0.17913 0.12197 0.010385 0.010293 0.10125 -0.076593 -0.1523 0.15381 0.099897 0.069161 -0.094686 -0.19381 0.050552 0.1688 -0.15498 0.36678 0.064383 -0.19956 -0.22946 0.0039297 -0.21038 -0.20634 0.08497 
up 0.12863 0.056338 -0.11247 -0.12277 -0.036494 -0.053403 -0.058144 -0.040791 0.055734 0.0049239 0.075344 0.015564 -0.057363 0.12679 -0.10142 0.010602 -0.13271 0.01689 -0.026262 -0.20909 0.0024062 0.17473 0.058824 0.089706 -0.32181 -0.12995 0.22761 0.16089 -0.064935 0.14927 -0.17795 0.027955 0.0030446 -0.035276 0.035339 0.0032187 0.14078 -0.11364 -0.061275 0.11704 0.39387 0.17537 0.10475 0.02446 -0.0012746 -0.18296 -0.19741 -0.031388 -0.22026 0.049586 -0.0071046 0.33532 -0.22036 -0.16447 -0.041061 -0.079636 -0.021799 -0.020857 0.093917 0.12599 -0.06401 0.1532 0.24852 0.073658 -0.17805 0.23014 0.075923 -0.020914 -0.046176 -0.03902 0.044726 -0.015401 0.17717 0.19977 -0.16604 0.071749 0.17277 0.20575 0.14428 0.010047 0.010737 0.11556 -0.094019 -0.17237 0.17731 0.10973 0.080378 -0.10104 -0.21374 0.064814 0.18854 -0.18491 0.41649 0.074331 -0.22588 -0.264 0.0051001 -0.24056 -0.24174 0.10115 
day 0.13304 0.059302 -0.11729 -0.12887 -0.032518 -0.055858 -0.056376 -0.043762 0.04927 0.0086848 0.070972 0.0092668 -0.059579 0.1298 -0.098447 0.0071136 -0.13163 0.01682 -0.026729 -0.21087 -0.0023924 0.18387 0.057408 0.09761 -0.34079 -0.13628 0.22924 0.16653 -0.067475 0.15728 -0.18517 0.029537 0.0041858 -0.038774 0.040481 0.0098523 0.15025 -0.12642 -0.05747 0.1207 0.40997 0.17857 0.11664 0.028747 0.00019575 -0.18241 -0.20862 -0.035408 -0.23457 0.046565 0.0040608 0.34838 -0.23629 -0.17597 -0.045546 -0.088338 -0.02164 -0.015916 0.1069 0.13046 -0.065229 0.15864 0.26111 0.081473 -0.18152 0.23076 0.073058 -0.026088 -0.049702 -0.040381 0.047755 -0.013856 0.18322 0.21367 -0.16896 0.078439 0.18028 0.21562 0.14706 0.018027 0.0065079 0.12292 -0.0965 -0.18227 0.19185 0.1255 0.092099 -0.11123 -0.22975 0.061312 0.20355 -0.19279 0.43744 0.077941 -0.23927 -0.27576 0.0099548 -0.2513 -0.24752 0.10286 
? 0.10905 0.047346 -0.10049 -0.097509 -0.027 -0.040141 -0.050304 -0.031539 0.039265 0.0062976 0.060172 0.0094474 -0.052659 0.1029 -0.077447 0.011897 -0.11304 0.0088679 -0.019337 -0.17579 -0.0008982 0.1477 0.043545 0.077697 -0.27386 -0.10762 0.20133 0.1293 -0.061249 0.12772 -0.14893 0.027703 0.0094669 -0.026722 0.039053 0.0025569 0.12128 -0.098984 -0.04551 0.097572 0.33867 0.14918 0.084309 0.027328 -0.0014291 -0.1499 -0.16731 -0.020637 -0.18644 0.037875 0.0011569 0.2727 -0.19847 -0.13574 -0.034984 -0.075863 -0.024778 -0.017145 0.08471 0.11722 -0.051309 0.12666 0.20415 0.064058 -0.13693 0.18266 0.061222 -0.015312 -0.033182 -0.027832 0.035985 -0.001169 0.15168 0.16571 -0.14342 0.062411 0.14732 0.16957 0.12784 0.015227 0.016721 0.10353 -0.075582 -0.15334 0.14337 0.10317 0.066258 -0.088166 -0.18855 0.051406 0.16744 -0.1435 0.35822 0.053709 -0.2009 -0.22426 0.012232 -0.21161 -0.20054 0.085091 
research 0.12813 0.06106 -0.11016 -0.12708 -0.024689 -0.050874 -0.055582 -0.04118 0.048364 0.01205 0.066119 0.012615 -0.057174 0.12641 -0.093355 0.0077008 -0.13083 0.01518 -0.025814 -0.2071 0.0017648 0.17352 0.06167 0.087421 -0.33164 -0.13568 0.21885 0.17012 -0.067478 0.15004 -0.17807 0.027872 0.0038686 -0.04274 0.045746 0.0087753 0.14728 -0.12142 -0.058281 0.12384 0.39865 0.18146 0.1121 0.03047 0.0023547 -0.18128 -0.20064 -0.037302 -0.22632 0.051809 0.003394 0.34003 -0.23172 -0.16909 -0.042395 -0.08576 -0.018269 -0.016684 0.098266 0.12862 -0.06104 0.16021 0.25449 0.073977 -0.17859 0.23237 0.068649 -0.027781 -0.051172 -0.038957 0.047197 -0.016629 0.17619 0.21489 -0.16122 0.075471 0.17816 0.20829 0.14756 0.02249 0.011094 0.12814 -0.098297 -0.17468 0.18501 0.11533 0.089401 -0.10494 -0.22373 0.059649 0.19527 -0.1816 0.43076 0.085377 -0.23544 -0.27205 0.0011684 -0.24795 -0.24408 0.098957 
Learning 0.13241 0.065388 -0.12096 -0.12741 -0.033197 -0.05508 -0.052212 -0.043949 0.052185 0.0063834 0.071717 0.014496 -0.059358 0.13035 -0.10009 0.0095116 -0.1379 0.017873 -0.02815 -0.21877 -0.001822 0.18323 0.061001 0.094376 -0.33802 -0.1357 0.23675 0.16917 -0.068964 0.15744 -0.18319 0.027387 0.0047621 -0.034625 0.040172 0.0077122 0.15018 -0.12456 -0.062528 0.12815 0.4148 0.18614 0.11926 0.02802 -0.0010244 -0.18893 -0.21244 -0.034983 -0.23557 0.046282 -0.00099157 0.34906 -0.24072 -0.17306 -0.047483 -0.091265 -0.025453 -0.022849 0.10458 0.1358 -0.067639 0.16344 0.26087 0.083859 -0.18032 0.2356 0.077685 -0.025647 -0.050321 -0.041595 0.045485 -0.018403 0.18597 0.21894 -0.17159 0.079061 0.1801 0.21762 0.14975 0.016333 0.0065622 0.12401 -0.092723 -0.18558 0.18868 0.12175 0.094205 -0.11153 -0.2269 0.060536 0.19969 -0.18997 0.4397 0.079939 -0.23951 -0.27864 0.0071683 -0.25795 -0.25417 0.10326 
@dgt_switzerland 0.10925 0.054761 -0.10421 -0.10909 -0.029064 -0.048699 -0.046733 -0.038659 0.049709 0.0052381 0.066974 0.0093503 -0.049054 0.11171 -0.083345 0.0084137 -0.12194 0.012357 -0.020671 -0.19417 -0.0011156 0.16068 0.0567 0.083319 -0.29671 -0.11791 0.20718 0.14979 -0.06209 0.13269 -0.16221 0.025056 0.0049965 -0.034759 0.036836 0.0052391 0.13351 -0.11312 -0.055875 0.10835 0.36407 0.16357 0.094279 0.030216 -0.0023284 -0.16609 -0.18048 -0.028916 -0.20984 0.044036 -0.0016117 0.30655 -0.21123 -0.15282 -0.036831 -0.082656 -0.022864 -0.015719 0.090356 0.12326 -0.0569 0.13982 0.22743 0.072929 -0.15585 0.209 0.071829 -0.026889 -0.041228 -0.036077 0.036343 -0.013744 0.1595 0.18568 -0.15519 0.068101 0.15885 0.19149 0.12977 0.01287 0.011539 0.10866 -0.080003 -0.16381 0.16582 0.10397 0.07738 -0.10363 -0.20521 0.054425 0.17853 -0.16502 0.38931 0.072172 -0.21186 -0.24275 0.0021238 -0.22404 -0.22161 0.09148 
We 0.12165 0.064677 -0.10889 -0.12686 -0.029312 -0.061247 -0.052458 -0.039622 0.054314 0.009446 0.066419 0.014182 -0.055314 0.12772 -0.094049 0.0053894 -0.13352 0.015221 -0.025142 -0.20393 -0.0050256 0.17289 0.06267 0.087028 -0.32786 -0.12856 0.22074 0.16169 -0.067893 0.14965 -0.18096 0.026351 0.00516 -0.030063 0.037277 0.0066565 0.14905 -0.11559 -0.06247 0.12279 0.39645 0.17085 0.1113 0.022578 -0.0035839 -0.18546 -0.20401 -0.035188 -0.22302 0.040146 -0.0017373 0.33857 -0.23356 -0.16887 -0.041763 -0.090675 -0.021519 -0.015298 0.10165 0.13058 -0.063428 0.15454 0.25398 0.081559 -0.17638 0.22636 0.073335 -0.026434 -0.044426 -0.041129 0.039697 -0.018672 0.18146 0.2042 -0.16832 0.068754 0.16632 0.20682 0.14336 0.01597 0.0085812 0.11841 -0.086856 -0.17648 0.18071 0.12003 0.090122 -0.099592 -0.22706 0.060458 0.19622 -0.18483 0.42129 0.081714 -0.2318 -0.26659 0.0055671 -0.24328 -0.24287 0.095425 
#AI 0.12699 0.066784 -0.1142 -0.12533 -0.035616 -0.051612 -0.056367 -0.041074 0.052639 0.01093 0.075394 0.01416 -0.052096 0.12499 -0.094607 0.0079699 -0.13566 0.01606 -0.020511 -0.21469 -0.0004917 0.17948 0.062179 0.090025 -0.32734 -0.13087 0.23351 0.16899 -0.064625 0.15327 -0.18031 0.028661 0.01031 -0.032057 0.039162 0.0046469 0.14558 -0.1269 -0.06398 0.1185 0.40581 0.18235 0.10922 0.032177 0.0034133 -0.18264 -0.20526 -0.033984 -0.22692 0.055057 -0.003187 0.33785 -0.23613 -0.16475 -0.044012 -0.090538 -0.018297 -0.020062 0.10027 0.13475 -0.066144 0.15997 0.25399 0.082241 -0.17517 0.23046 0.080077 -0.026766 -0.047744 -0.039221 0.047576 -0.018174 0.17626 0.20813 -0.17051 0.069248 0.17128 0.21017 0.14459 0.018757 0.012162 0.11864 -0.091633 -0.18301 0.18285 0.1189 0.08171 -0.11112 -0.22642 0.06483 0.19603 -0.1856 0.43164 0.077586 -0.23076 -0.26708 5.1751e-05 -0.24788 -0.25289 0.1031 
Un 0.10795 0.0473 -0.1045 -0.10388 -0.030033 -0.047653 -0.050971 -0.032753 0.053821 0.001528 0.068592 0.0057938 -0.045016 0.10586 -0.082044 0.0072912 -0.11853 0.011909 -0.014467 -0.19235 -0.0046214 0.15222 0.060334 0.081174 -0.28068 -0.11279 0.20692 0.13647 -0.052462 0.1277 -0.15539 0.025189 0.0066881 -0.02833 0.035683 0.0041352 0.13026 -0.10496 -0.055246 0.10882 0.35756 0.15821 0.088231 0.030457 -0.0088185 -0.16429 -0.17754 -0.026343 -0.20444 0.037635 -0.010734 0.28877 -0.21113 -0.13969 -0.036031 -0.073825 -0.024436 -0.0093305 0.092472 0.1228 -0.053124 0.1248 0.22698 0.074279 -0.14151 0.19508 0.078658 -0.020418 -0.04002 -0.032127 0.030844 -0.0054967 0.15729 0.17379 -0.15149 0.066448 0.1542 0.18443 0.12895 0.0046524 0.011401 0.096045 -0.077172 -0.15948 0.15269 0.10631 0.068207 -0.10041 -0.20478 0.046951 0.17311 -0.15476 0.37417 0.059607 -0.20709 -0.23632 0.010606 -0.21973 -0.21409 0.091595 
made 0.11919 0.05137 -0.11475 -0.116 -0.030815 -0.051795 -0.051288 -0.038964 0.053412 0.0042101 0.072271 0.011337 -0.055066 0.11857 -0.091713 0.0091364 -0.12734 0.015334 -0.023519 -0.19862 -0.002082 0.16868 0.06424 0.085647 -0.30589 -0.12106 0.21524 0.15445 -0.062404 0.1418 -0.1723 0.025463 0.0024116 -0.03513 0.038786 0.0074424 0.13838 -0.11617 -0.061589 0.11014 0.37597 0.16558 0.10021 0.030172 -0.0049525 -0.16993 -0.18722 -0.030382 -0.21593 0.047701 -0.0034462 0.31837 -0.21961 -0.15895 -0.038561 -0.083608 -0.022994 -0.017748 0.092948 0.12968 -0.062836 0.14239 0.23777 0.075542 -0.165 0.21546 0.07457 -0.026853 -0.044073 -0.037232 0.036306 -0.015118 0.16102 0.19397 -0.15952 0.072203 0.16211 0.20118 0.1334 0.013182 0.010299 0.11295 -0.082388 -0.16909 0.17317 0.1083 0.08087 -0.10729 -0.21318 0.05605 0.18724 -0.17511 0.40562 0.07668 -0.22029 -0.25189 0.0040774 -0.23118 -0.2284 0.099151 
Thanks 0.10908 0.051983 -0.09905 -0.10567 -0.024988 -0.047649 -0.046137 -0.038065 0.044208 0.0049054 0.061441 0.0085968 -0.048443 0.10925 -0.083718 0.0098116 -0.11223 0.016131 -0.025621 -0.18409 0.00047195 0.15478 0.049367 0.078314 -0.27993 -0.11322 0.19717 0.13668 -0.053755 0.1302 -0.15367 0.025176 0.0021553 -0.032016 0.033996 0.0034813 0.12729 -0.1072 -0.055783 0.10223 0.34115 0.1507 0.093825 0.026297 0.00060351 -0.15722 -0.17395 -0.030119 -0.19412 0.041081 -0.0017378 0.28647 -0.19974 -0.14507 -0.035026 -0.073705 -0.019767 -0.016197 0.083915 0.11646 -0.05776 0.13403 0.21682 0.07028 -0.14775 0.19617 0.06572 -0.023278 -0.03793 -0.036081 0.034488 -0.011624 0.15016 0.17801 -0.14543 0.064421 0.1482 0.18085 0.12073 0.013277 0.0091498 0.10465 -0.077099 -0.15477 0.15587 0.098343 0.077223 -0.091203 -0.19078 0.053915 0.16916 -0.15993 0.36615 0.065895 -0.19898 -0.23014 0.0042277 -0.21217 -0.21333 0.086893 
his 0.1287 0.063233 -0.11704 -0.12585 -0.026952 -0.059743 -0.054498 -0.04118 0.055293 0.011374 0.066945 0.011385 -0.058357 0.12591 -0.097276 0.0069991 -0.12772 0.016574 -0.027552 -0.21031 -0.00089507 0.17878 0.058136 0.091941 -0.32926 -0.12787 0.22414 0.17148 -0.066444 0.1506 -0.17899 0.030623 0.0071863 -0.031637 0.036735 0.0059305 0.15315 -0.1194 -0.05661 0.12215 0.398 0.17643 0.10983 0.026743 -0.0018088 -0.17646 -0.2004 -0.032367 -0.22869 0.047455 0.0015932 0.33511 -0.22882 -0.17162 -0.038308 -0.087856 -0.019578 -0.022751 0.10248 0.12932 -0.060388 0.15192 0.25157 0.075653 -0.17628 0.22413 0.070385 -0.027882 -0.047442 -0.041577 0.044148 -0.017553 0.17511 0.2077 -0.16245 0.07626 0.17936 0.20501 0.14568 0.022182 0.0069761 0.12123 -0.095526 -0.17338 0.18287 0.12127 0.086715 -0.10581 -0.22225 0.064374 0.19382 -0.18407 0.4218 0.081415 -0.23462 -0.26663 0.0066447 -0.24516 -0.24283 0.098561 
#Lausanne 0.11235 0.054008 -0.10875 -0.10957 -0.033222 -0.04442 -0.052918 -0.039569 0.051856 0.0084237 0.06876 0.0087458 -0.047885 0.10998 -0.088831 0.0097797 -0.13123 0.0062861 -0.019891 -0.20234 -0.001936 0.16591 0.058469 0.088864 -0.30331 -0.11635 0.21768 0.15289 -0.058837 0.14034 -0.17011 0.029982 0.008106 -0.034732 0.035334 0.0049713 0.133 -0.10896 -0.056934 0.11606 0.37353 0.16518 0.09489 0.031337 -0.0031803 -0.1703 -0.18918 -0.032207 -0.21069 0.043031 -0.0091013 0.31058 -0.22015 -0.15246 -0.040938 -0.08351 -0.024126 -0.013718 0.097403 0.12499 -0.051794 0.14 0.23763 0.078927 -0.15256 0.21021 0.079024 -0.022234 -0.040126 -0.035734 0.035646 -0.010592 0.16408 0.18886 -0.16048 0.071998 0.16575 0.19383 0.13511 0.0085941 0.011391 0.108 -0.082371 -0.16744 0.16822 0.1117 0.074682 -0.11108 -0.21627 0.053283 0.18407 -0.16643 0.4027 0.065924 -0.22006 -0.25039 0.0043884 -0.22996 -0.22508 0.093817 
see 0.12543 0.062367 -0.11482 -0.12271 -0.032698 -0.056833 -0.056965 -0.042786 0.053207 0.0052104 0.074606 0.004146 -0.05726 0.12337 -0.094275 0.010306 -0.13576 0.012612 -0.023164 -0.21375 -0.004933 0.17823 0.061386 0.089907 -0.32718 -0.12783 0.2296 0.16536 -0.061778 0.15109 -0.18259 0.031223 0.0067236 -0.035115 0.043365 0.0068306 0.14418 -0.12272 -0.062692 0.12267 0.39713 0.18102 0.10739 0.031883 0.0012627 -0.18575 -0.20288 -0.035538 -0.23005 0.048285 -0.0081756 0.3315 -0.22912 -0.16642 -0.040229 -0.091116 -0.022173 -0.02172 0.10282 0.13154 -0.06025 0.15003 0.25412 0.076481 -0.17421 0.22667 0.074781 -0.026829 -0.046988 -0.03919 0.042743 -0.014958 0.17443 0.21124 -0.16866 0.071653 0.17449 0.21077 0.14759 0.01605 0.01049 0.11939 -0.092673 -0.18336 0.17942 0.12037 0.082647 -0.1064 -0.22746 0.059814 0.20198 -0.1851 0.42696 0.076429 -0.23435 -0.27292 0.0085218 -0.24316 -0.24206 0.096969 
one 0.10994 0.052701 -0.10722 -0.11102 -0.027536 -0.046398 -0.052078 -0.040374 0.050454 0.0084138 0.066066 0.011773 -0.055751 0.11326 -0.088812 0.006608 -0.12844 0.0098831 -0.02017 -0.19399 -0.0020223 0.16364 0.058438 0.085395 -0.30004 -0.12493 0.20819 0.15085 -0.06156 0.13577 -0.16383 0.031488 0.005528 -0.035232 0.035241 0.0036593 0.13626 -0.10923 -0.055654 0.11025 0.36941 0.16532 0.094834 0.026966 -0.0052054 -0.16789 -0.18799 -0.03599 -0.20941 0.047047 -0.0039766 0.30682 -0.21718 -0.15642 -0.036605 -0.080039 -0.019257 -0.016672 0.089406 0.12305 -0.052211 0.13943 0.23437 0.071875 -0.15924 0.21052 0.076092 -0.02421 -0.04214 -0.039496 0.038252 -0.013734 0.16326 0.18882 -0.1569 0.066545 0.16312 0.19222 0.13204 0.021087 0.0096459 0.11091 -0.083942 -0.16772 0.17249 0.11058 0.076419 -0.10412 -0.20705 0.053798 0.17983 -0.16782 0.39107 0.06805 -0.21578 -0.25173 0.0029783 -0.22665 -0.22143 0.094643 
but 0.13548 0.061108 -0.11234 -0.13211 -0.035938 -0.056703 -0.062324 -0.041568 0.052736 0.0060244 0.074655 0.012261 -0.059475 0.1284 -0.097166 0.011948 -0.13446 0.0152 -0.02844 -0.2217 -0.010124 0.18687 0.058131 0.10256 -0.34593 -0.13781 0.23732 0.1797 -0.067409 0.16194 -0.19013 0.03321 0.0035784 -0.037923 0.048027 0.0082449 0.15503 -0.12675 -0.062941 0.1225 0.42231 0.18811 0.11703 0.032419 -0.00044658 -0.18948 -0.21493 -0.036598 -0.23326 0.049351 0.0034448 0.35313 -0.24385 -0.17701 -0.041002 -0.08812 -0.025844 -0.015138 0.10965 0.14091 -0.063266 0.16749 0.2623 0.075739 -0.19337 0.23707 0.079448 -0.029984 -0.054596 -0.048069 0.050269 -0.019934 0.1832 0.22106 -0.17775 0.079062 0.18543 0.21811 0.15108 0.018123 0.013991 0.1279 -0.1051 -0.18979 0.19345 0.12462 0.08619 -0.1153 -0.23116 0.069442 0.20261 -0.19854 0.45151 0.083703 -0.24709 -0.28567 0.0057765 -0.25953 -0.25545 0.10716 
This 0.12421 0.060847 -0.11087 -0.11764 -0.025275 -0.054758 -0.055106 -0.040588 0.051169 0.0081307 0.063277 0.014202 -0.056715 0.12084 -0.092983 0.0062143 -0.12543 0.014736 -0.027343 -0.20256 -0.0014301 0.17195 0.057854 0.089248 -0.31734 -0.12487 0.21652 0.16023 -0.063849 0.14615 -0.17162 0.027834 0.0077187 -0.033674 0.037687 0.0050116 0.14333 -0.11787 -0.058353 0.11745 0.38537 0.17365 0.10528 0.025717 -0.0039015 -0.17071 -0.19186 -0.035167 -0.21758 0.045276 0.0018544 0.32532 -0.22384 -0.16452 -0.041503 -0.085688 -0.018198 -0.016781 0.098434 0.12792 -0.060831 0.15176 0.24596 0.074136 -0.17186 0.22081 0.069275 -0.025394 -0.045622 -0.038688 0.044417 -0.01486 0.17088 0.19962 -0.16115 0.073019 0.16825 0.1996 0.13968 0.019881 0.0093306 0.11708 -0.089392 -0.17038 0.17953 0.11424 0.088518 -0.10309 -0.21443 0.061384 0.18557 -0.17843 0.40851 0.078982 -0.22544 -0.2596 0.0069749 -0.23875 -0.23198 0.10013 
out 0.1354 0.061865 -0.11938 -0.1328 -0.032725 -0.059162 -0.05631 -0.044988 0.056756 0.0075194 0.075302 0.010869 -0.065756 0.13012 -0.099244 0.0086349 -0.13965 0.013337 -0.028506 -0.21949 -0.0053666 0.18502 0.061104 0.099785 -0.3427 -0.13973 0.2309 0.16902 -0.066769 0.15961 -0.18382 0.027836 0.0046315 -0.034172 0.045532 0.0054434 0.15627 -0.12557 -0.059789 0.12448 0.41546 0.18764 0.1123 0.032514 0.0013301 -0.18794 -0.21307 -0.033173 -0.23726 0.04919 0.0029428 0.34991 -0.2415 -0.17274 -0.044131 -0.09479 -0.018515 -0.019782 0.10303 0.13886 -0.066242 0.16633 0.26489 0.0802 -0.18329 0.23773 0.075936 -0.027776 -0.050845 -0.042428 0.048298 -0.018443 0.18409 0.21967 -0.17242 0.076593 0.18391 0.21618 0.14561 0.016968 0.011734 0.12575 -0.09643 -0.18399 0.19314 0.12133 0.095247 -0.1129 -0.23247 0.06914 0.19884 -0.19725 0.44577 0.084691 -0.24194 -0.28409 0.0079591 -0.25941 -0.25459 0.10657 
Join 0.12341 0.06332 -0.11369 -0.11905 -0.029792 -0.05338 -0.053521 -0.043261 0.055697 0.0040744 0.0673 0.012074 -0.056594 0.11845 -0.09543 0.0080185 -0.12569 0.015183 -0.02598 -0.2117 -0.0030394 0.17396 0.058431 0.090348 -0.3183 -0.12688 0.22143 0.16236 -0.063548 0.14811 -0.1753 0.025681 -0.0012323 -0.032903 0.040505 0.0055562 0.14185 -0.11888 -0.057505 0.11758 0.38979 0.17336 0.10345 0.031729 0.00024203 -0.17861 -0.19935 -0.034812 -0.22252 0.045981 -0.0019403 0.32779 -0.2279 -0.16601 -0.047724 -0.084883 -0.021567 -0.02057 0.095888 0.13032 -0.061091 0.15195 0.2475 0.079887 -0.16668 0.22565 0.075135 -0.026902 -0.043818 -0.038873 0.03721 -0.012657 0.17514 0.20029 -0.16318 0.072657 0.17209 0.20568 0.13973 0.011809 0.0074802 0.11741 -0.087864 -0.17679 0.17528 0.1159 0.085573 -0.10414 -0.22132 0.060239 0.18828 -0.17966 0.41947 0.075452 -0.22315 -0.26691 0.009155 -0.24565 -0.23708 0.096353 
